digraph Tree {
node [shape=box, style="filled", color="black", fontname="helvetica"] ;
edge [fontname="helvetica"] ;
0 [label="Global_Sales <= 0.055\ngini = 0.517\nsamples = 5460\nvalue = [802, 3635, 435, 588]\nclass = JP_Sales", fillcolor="#8fef87"] ;
1 [label="Platform_PC <= 0.5\ngini = 0.661\nsamples = 650\nvalue = [180, 199, 267, 4]\nclass = NA_Sales", fillcolor="#e1f0fb"] ;
0 -> 1 [labeldistance=2.5, labelangle=45, headlabel="True"] ;
2 [label="Platform_PS2 <= 0.5\ngini = 0.627\nsamples = 392\nvalue = [157, 170, 61, 4]\nclass = JP_Sales", fillcolor="#f5fef4"] ;
1 -> 2 ;
3 [label="Global_Sales <= 0.025\ngini = 0.628\nsamples = 343\nvalue = [155, 129, 56, 3]\nclass = EU_Sales", fillcolor="#fcf0e7"] ;
2 -> 3 ;
4 [label="User_Count <= 9.5\ngini = 0.546\nsamples = 113\nvalue = [69, 16, 28, 0]\nclass = EU_Sales", fillcolor="#f2c29f"] ;
3 -> 4 ;
5 [label="Critic_Count <= 6.5\ngini = 0.308\nsamples = 54\nvalue = [44, 9, 1, 0]\nclass = EU_Sales", fillcolor="#eb9d65"] ;
4 -> 5 ;
6 [label="Critic_Score <= 59.5\ngini = 0.571\nsamples = 7\nvalue = [2, 4, 1, 0]\nclass = JP_Sales", fillcolor="#b5f5b0"] ;
5 -> 6 ;
7 [label="gini = 0.0\nsamples = 3\nvalue = [0, 3, 0, 0]\nclass = JP_Sales", fillcolor="#47e539"] ;
6 -> 7 ;
8 [label="Year_of_Release_2006.0 <= 0.5\ngini = 0.625\nsamples = 4\nvalue = [2, 1, 1, 0]\nclass = EU_Sales", fillcolor="#f6d5bd"] ;
6 -> 8 ;
9 [label="Genre_Shooter <= 0.5\ngini = 0.444\nsamples = 3\nvalue = [2, 1, 0, 0]\nclass = EU_Sales", fillcolor="#f2c09c"] ;
8 -> 9 ;
10 [label="gini = 0.0\nsamples = 2\nvalue = [2, 0, 0, 0]\nclass = EU_Sales", fillcolor="#e58139"] ;
9 -> 10 ;
11 [label="gini = 0.0\nsamples = 1\nvalue = [0, 1, 0, 0]\nclass = JP_Sales", fillcolor="#47e539"] ;
9 -> 11 ;
12 [label="gini = 0.0\nsamples = 1\nvalue = [0, 0, 1, 0]\nclass = NA_Sales", fillcolor="#399de5"] ;
8 -> 12 ;
13 [label="Developer_Capcom <= 0.5\ngini = 0.19\nsamples = 47\nvalue = [42, 5, 0, 0]\nclass = EU_Sales", fillcolor="#e89051"] ;
5 -> 13 ;
14 [label="Publisher_JoWood Productions <= 0.5\ngini = 0.127\nsamples = 44\nvalue = [41, 3, 0, 0]\nclass = EU_Sales", fillcolor="#e78a47"] ;
13 -> 14 ;
15 [label="Publisher_Midas Interactive Entertainment <= 0.5\ngini = 0.089\nsamples = 43\nvalue = [41, 2, 0, 0]\nclass = EU_Sales", fillcolor="#e68743"] ;
14 -> 15 ;
16 [label="Developer_Mindware Studios <= 0.5\ngini = 0.046\nsamples = 42\nvalue = [41, 1, 0, 0]\nclass = EU_Sales", fillcolor="#e6843e"] ;
15 -> 16 ;
17 [label="gini = 0.0\nsamples = 41\nvalue = [41, 0, 0, 0]\nclass = EU_Sales", fillcolor="#e58139"] ;
16 -> 17 ;
18 [label="gini = 0.0\nsamples = 1\nvalue = [0, 1, 0, 0]\nclass = JP_Sales", fillcolor="#47e539"] ;
16 -> 18 ;
19 [label="gini = 0.0\nsamples = 1\nvalue = [0, 1, 0, 0]\nclass = JP_Sales", fillcolor="#47e539"] ;
15 -> 19 ;
20 [label="gini = 0.0\nsamples = 1\nvalue = [0, 1, 0, 0]\nclass = JP_Sales", fillcolor="#47e539"] ;
14 -> 20 ;
21 [label="Critic_Score <= 61.0\ngini = 0.444\nsamples = 3\nvalue = [1, 2, 0, 0]\nclass = JP_Sales", fillcolor="#a3f29c"] ;
13 -> 21 ;
22 [label="gini = 0.0\nsamples = 1\nvalue = [1, 0, 0, 0]\nclass = EU_Sales", fillcolor="#e58139"] ;
21 -> 22 ;
23 [label="gini = 0.0\nsamples = 2\nvalue = [0, 2, 0, 0]\nclass = JP_Sales", fillcolor="#47e539"] ;
21 -> 23 ;
24 [label="User_Score <= 5.1\ngini = 0.597\nsamples = 59\nvalue = [25, 7, 27, 0]\nclass = NA_Sales", fillcolor="#f3f9fd"] ;
4 -> 24 ;
25 [label="gini = 0.0\nsamples = 10\nvalue = [10, 0, 0, 0]\nclass = EU_Sales", fillcolor="#e58139"] ;
24 -> 25 ;
26 [label="Platform_GBA <= 0.5\ngini = 0.582\nsamples = 49\nvalue = [15, 7, 27, 0]\nclass = NA_Sales", fillcolor="#b9dcf6"] ;
24 -> 26 ;
27 [label="Year_of_Release_2006.0 <= 0.5\ngini = 0.542\nsamples = 46\nvalue = [15, 4, 27, 0]\nclass = NA_Sales", fillcolor="#b2d9f5"] ;
26 -> 27 ;
28 [label="User_Score <= 8.65\ngini = 0.509\nsamples = 42\nvalue = [11, 4, 27, 0]\nclass = NA_Sales", fillcolor="#99ccf2"] ;
27 -> 28 ;
29 [label="Platform_PS4 <= 0.5\ngini = 0.447\nsamples = 38\nvalue = [11, 1, 26, 0]\nclass = NA_Sales", fillcolor="#91c9f1"] ;
28 -> 29 ;
30 [label="Publisher_THQ <= 0.5\ngini = 0.371\nsamples = 30\nvalue = [6, 1, 23, 0]\nclass = NA_Sales", fillcolor="#73baed"] ;
29 -> 30 ;
31 [label="Genre_Action <= 0.5\ngini = 0.304\nsamples = 28\nvalue = [4, 1, 23, 0]\nclass = NA_Sales", fillcolor="#62b1ea"] ;
30 -> 31 ;
32 [label="Publisher_D3Publisher <= 0.5\ngini = 0.095\nsamples = 20\nvalue = [1, 0, 19, 0]\nclass = NA_Sales", fillcolor="#43a2e6"] ;
31 -> 32 ;
33 [label="gini = 0.0\nsamples = 19\nvalue = [0, 0, 19, 0]\nclass = NA_Sales", fillcolor="#399de5"] ;
32 -> 33 ;
34 [label="gini = 0.0\nsamples = 1\nvalue = [1, 0, 0, 0]\nclass = EU_Sales", fillcolor="#e58139"] ;
32 -> 34 ;
35 [label="Publisher_Stainless Games <= 0.5\ngini = 0.594\nsamples = 8\nvalue = [3, 1, 4, 0]\nclass = NA_Sales", fillcolor="#d7ebfa"] ;
31 -> 35 ;
36 [label="Platform_XOne <= 0.5\ngini = 0.49\nsamples = 7\nvalue = [3, 0, 4, 0]\nclass = NA_Sales", fillcolor="#cee6f8"] ;
35 -> 36 ;
37 [label="Critic_Count <= 23.5\ngini = 0.48\nsamples = 5\nvalue = [3, 0, 2, 0]\nclass = EU_Sales", fillcolor="#f6d5bd"] ;
36 -> 37 ;
38 [label="gini = 0.0\nsamples = 3\nvalue = [3, 0, 0, 0]\nclass = EU_Sales", fillcolor="#e58139"] ;
37 -> 38 ;
39 [label="gini = 0.0\nsamples = 2\nvalue = [0, 0, 2, 0]\nclass = NA_Sales", fillcolor="#399de5"] ;
37 -> 39 ;
40 [label="gini = 0.0\nsamples = 2\nvalue = [0, 0, 2, 0]\nclass = NA_Sales", fillcolor="#399de5"] ;
36 -> 40 ;
41 [label="gini = 0.0\nsamples = 1\nvalue = [0, 1, 0, 0]\nclass = JP_Sales", fillcolor="#47e539"] ;
35 -> 41 ;
42 [label="gini = 0.0\nsamples = 2\nvalue = [2, 0, 0, 0]\nclass = EU_Sales", fillcolor="#e58139"] ;
30 -> 42 ;
43 [label="Publisher_Sony Computer Entertainment <= 0.5\ngini = 0.469\nsamples = 8\nvalue = [5, 0, 3, 0]\nclass = EU_Sales", fillcolor="#f5cdb0"] ;
29 -> 43 ;
44 [label="Publisher_Avanquest <= 0.5\ngini = 0.278\nsamples = 6\nvalue = [5, 0, 1, 0]\nclass = EU_Sales", fillcolor="#ea9a61"] ;
43 -> 44 ;
45 [label="gini = 0.0\nsamples = 5\nvalue = [5, 0, 0, 0]\nclass = EU_Sales", fillcolor="#e58139"] ;
44 -> 45 ;
46 [label="gini = 0.0\nsamples = 1\nvalue = [0, 0, 1, 0]\nclass = NA_Sales", fillcolor="#399de5"] ;
44 -> 46 ;
47 [label="gini = 0.0\nsamples = 2\nvalue = [0, 0, 2, 0]\nclass = NA_Sales", fillcolor="#399de5"] ;
43 -> 47 ;
48 [label="Developer_NATSUME ATARI Inc. <= 0.5\ngini = 0.375\nsamples = 4\nvalue = [0, 3, 1, 0]\nclass = JP_Sales", fillcolor="#84ee7b"] ;
28 -> 48 ;
49 [label="gini = 0.0\nsamples = 3\nvalue = [0, 3, 0, 0]\nclass = JP_Sales", fillcolor="#47e539"] ;
48 -> 49 ;
50 [label="gini = 0.0\nsamples = 1\nvalue = [0, 0, 1, 0]\nclass = NA_Sales", fillcolor="#399de5"] ;
48 -> 50 ;
51 [label="gini = 0.0\nsamples = 4\nvalue = [4, 0, 0, 0]\nclass = EU_Sales", fillcolor="#e58139"] ;
27 -> 51 ;
52 [label="gini = 0.0\nsamples = 3\nvalue = [0, 3, 0, 0]\nclass = JP_Sales", fillcolor="#47e539"] ;
26 -> 52 ;
53 [label="Platform_XB <= 0.5\ngini = 0.604\nsamples = 230\nvalue = [86, 113, 28, 3]\nclass = JP_Sales", fillcolor="#dcfada"] ;
3 -> 53 ;
54 [label="Platform_GBA <= 0.5\ngini = 0.622\nsamples = 185\nvalue = [86, 69, 28, 2]\nclass = EU_Sales", fillcolor="#fbede2"] ;
53 -> 54 ;
55 [label="Platform_GC <= 0.5\ngini = 0.615\nsamples = 169\nvalue = [86, 53, 28, 2]\nclass = EU_Sales", fillcolor="#f8dbc7"] ;
54 -> 55 ;
56 [label="Critic_Score <= 57.5\ngini = 0.591\nsamples = 153\nvalue = [86, 38, 27, 2]\nclass = EU_Sales", fillcolor="#f4caac"] ;
55 -> 56 ;
57 [label="User_Count <= 31.0\ngini = 0.36\nsamples = 55\nvalue = [43, 9, 2, 1]\nclass = EU_Sales", fillcolor="#eca26d"] ;
56 -> 57 ;
58 [label="Developer_CAProduction <= 0.5\ngini = 0.233\nsamples = 47\nvalue = [41, 3, 2, 1]\nclass = EU_Sales", fillcolor="#e99254"] ;
57 -> 58 ;
59 [label="Year_of_Release_2014.0 <= 0.5\ngini = 0.199\nsamples = 46\nvalue = [41, 3, 2, 0]\nclass = EU_Sales", fillcolor="#e89050"] ;
58 -> 59 ;
60 [label="Developer_Hellbent Games <= 0.5\ngini = 0.165\nsamples = 45\nvalue = [41, 3, 1, 0]\nclass = EU_Sales", fillcolor="#e78d4c"] ;
59 -> 60 ;
61 [label="Developer_Rising Star Games <= 0.5\ngini = 0.127\nsamples = 44\nvalue = [41, 3, 0, 0]\nclass = EU_Sales", fillcolor="#e78a47"] ;
60 -> 61 ;
62 [label="Developer_Ubisoft Quebec <= 0.5\ngini = 0.089\nsamples = 43\nvalue = [41, 2, 0, 0]\nclass = EU_Sales", fillcolor="#e68743"] ;
61 -> 62 ;
63 [label="Platform_XOne <= 0.5\ngini = 0.046\nsamples = 42\nvalue = [41, 1, 0, 0]\nclass = EU_Sales", fillcolor="#e6843e"] ;
62 -> 63 ;
64 [label="gini = 0.0\nsamples = 41\nvalue = [41, 0, 0, 0]\nclass = EU_Sales", fillcolor="#e58139"] ;
63 -> 64 ;
65 [label="gini = 0.0\nsamples = 1\nvalue = [0, 1, 0, 0]\nclass = JP_Sales", fillcolor="#47e539"] ;
63 -> 65 ;
66 [label="gini = 0.0\nsamples = 1\nvalue = [0, 1, 0, 0]\nclass = JP_Sales", fillcolor="#47e539"] ;
62 -> 66 ;
67 [label="gini = 0.0\nsamples = 1\nvalue = [0, 1, 0, 0]\nclass = JP_Sales", fillcolor="#47e539"] ;
61 -> 67 ;
68 [label="gini = 0.0\nsamples = 1\nvalue = [0, 0, 1, 0]\nclass = NA_Sales", fillcolor="#399de5"] ;
60 -> 68 ;
69 [label="gini = 0.0\nsamples = 1\nvalue = [0, 0, 1, 0]\nclass = NA_Sales", fillcolor="#399de5"] ;
59 -> 69 ;
70 [label="gini = 0.0\nsamples = 1\nvalue = [0, 0, 0, 1]\nclass = Other_Sales", fillcolor="#d739e5"] ;
58 -> 70 ;
71 [label="Critic_Count <= 30.5\ngini = 0.375\nsamples = 8\nvalue = [2, 6, 0, 0]\nclass = JP_Sales", fillcolor="#84ee7b"] ;
57 -> 71 ;
72 [label="gini = 0.0\nsamples = 6\nvalue = [0, 6, 0, 0]\nclass = JP_Sales", fillcolor="#47e539"] ;
71 -> 72 ;
73 [label="gini = 0.0\nsamples = 2\nvalue = [2, 0, 0, 0]\nclass = EU_Sales", fillcolor="#e58139"] ;
71 -> 73 ;
74 [label="Platform_PS <= 0.5\ngini = 0.655\nsamples = 98\nvalue = [43, 29, 25, 1]\nclass = EU_Sales", fillcolor="#fae5d7"] ;
56 -> 74 ;
75 [label="Critic_Count <= 27.5\ngini = 0.647\nsamples = 93\nvalue = [43, 24, 25, 1]\nclass = EU_Sales", fillcolor="#f8decb"] ;
74 -> 75 ;
76 [label="Publisher_Deep Silver <= 0.5\ngini = 0.593\nsamples = 69\nvalue = [38, 18, 13, 0]\nclass = EU_Sales", fillcolor="#f5ceb1"] ;
75 -> 76 ;
77 [label="Publisher_PQube <= 0.5\ngini = 0.578\nsamples = 66\nvalue = [38, 15, 13, 0]\nclass = EU_Sales", fillcolor="#f3c6a6"] ;
76 -> 77 ;
78 [label="Developer_DC Studios <= 0.5\ngini = 0.563\nsamples = 64\nvalue = [38, 15, 11, 0]\nclass = EU_Sales", fillcolor="#f3c4a2"] ;
77 -> 78 ;
79 [label="Publisher_Namco Bandai Games <= 0.5\ngini = 0.549\nsamples = 62\nvalue = [38, 13, 11, 0]\nclass = EU_Sales", fillcolor="#f2bf9a"] ;
78 -> 79 ;
80 [label="User_Count <= 9.5\ngini = 0.527\nsamples = 58\nvalue = [37, 10, 11, 0]\nclass = EU_Sales", fillcolor="#f1b991"] ;
79 -> 80 ;
81 [label="Platform_PS3 <= 0.5\ngini = 0.277\nsamples = 19\nvalue = [16, 1, 2, 0]\nclass = EU_Sales", fillcolor="#ea975c"] ;
80 -> 81 ;
82 [label="Developer_Gaia (Sony) <= 0.5\ngini = 0.198\nsamples = 18\nvalue = [16, 0, 2, 0]\nclass = EU_Sales", fillcolor="#e89152"] ;
81 -> 82 ;
83 [label="Year_of_Release_2012.0 <= 0.5\ngini = 0.111\nsamples = 17\nvalue = [16, 0, 1, 0]\nclass = EU_Sales", fillcolor="#e78945"] ;
82 -> 83 ;
84 [label="gini = 0.0\nsamples = 16\nvalue = [16, 0, 0, 0]\nclass = EU_Sales", fillcolor="#e58139"] ;
83 -> 84 ;
85 [label="gini = 0.0\nsamples = 1\nvalue = [0, 0, 1, 0]\nclass = NA_Sales", fillcolor="#399de5"] ;
83 -> 85 ;
86 [label="gini = 0.0\nsamples = 1\nvalue = [0, 0, 1, 0]\nclass = NA_Sales", fillcolor="#399de5"] ;
82 -> 86 ;
87 [label="gini = 0.0\nsamples = 1\nvalue = [0, 1, 0, 0]\nclass = JP_Sales", fillcolor="#47e539"] ;
81 -> 87 ;
88 [label="User_Count <= 20.5\ngini = 0.604\nsamples = 39\nvalue = [21, 9, 9, 0]\nclass = EU_Sales", fillcolor="#f5cdb0"] ;
80 -> 88 ;
89 [label="Critic_Count <= 16.5\ngini = 0.665\nsamples = 23\nvalue = [8, 7, 8, 0]\nclass = EU_Sales", fillcolor="#ffffff"] ;
88 -> 89 ;
90 [label="Platform_Wii <= 0.5\ngini = 0.542\nsamples = 12\nvalue = [4, 1, 7, 0]\nclass = NA_Sales", fillcolor="#b5daf5"] ;
89 -> 90 ;
91 [label="Critic_Count <= 12.5\ngini = 0.463\nsamples = 11\nvalue = [4, 0, 7, 0]\nclass = NA_Sales", fillcolor="#aad5f4"] ;
90 -> 91 ;
92 [label="Genre_Racing <= 0.5\ngini = 0.278\nsamples = 6\nvalue = [1, 0, 5, 0]\nclass = NA_Sales", fillcolor="#61b1ea"] ;
91 -> 92 ;
93 [label="gini = 0.0\nsamples = 5\nvalue = [0, 0, 5, 0]\nclass = NA_Sales", fillcolor="#399de5"] ;
92 -> 93 ;
94 [label="gini = 0.0\nsamples = 1\nvalue = [1, 0, 0, 0]\nclass = EU_Sales", fillcolor="#e58139"] ;
92 -> 94 ;
95 [label="Platform_PS4 <= 0.5\ngini = 0.48\nsamples = 5\nvalue = [3, 0, 2, 0]\nclass = EU_Sales", fillcolor="#f6d5bd"] ;
91 -> 95 ;
96 [label="Publisher_Ubisoft <= 0.5\ngini = 0.444\nsamples = 3\nvalue = [1, 0, 2, 0]\nclass = NA_Sales", fillcolor="#9ccef2"] ;
95 -> 96 ;
97 [label="gini = 0.0\nsamples = 2\nvalue = [0, 0, 2, 0]\nclass = NA_Sales", fillcolor="#399de5"] ;
96 -> 97 ;
98 [label="gini = 0.0\nsamples = 1\nvalue = [1, 0, 0, 0]\nclass = EU_Sales", fillcolor="#e58139"] ;
96 -> 98 ;
99 [label="gini = 0.0\nsamples = 2\nvalue = [2, 0, 0, 0]\nclass = EU_Sales", fillcolor="#e58139"] ;
95 -> 99 ;
100 [label="gini = 0.0\nsamples = 1\nvalue = [0, 1, 0, 0]\nclass = JP_Sales", fillcolor="#47e539"] ;
90 -> 100 ;
101 [label="Critic_Count <= 18.5\ngini = 0.562\nsamples = 11\nvalue = [4, 6, 1, 0]\nclass = JP_Sales", fillcolor="#caf8c6"] ;
89 -> 101 ;
102 [label="gini = 0.0\nsamples = 4\nvalue = [0, 4, 0, 0]\nclass = JP_Sales", fillcolor="#47e539"] ;
101 -> 102 ;
103 [label="Critic_Count <= 20.0\ngini = 0.571\nsamples = 7\nvalue = [4, 2, 1, 0]\nclass = EU_Sales", fillcolor="#f5cdb0"] ;
101 -> 103 ;
104 [label="gini = 0.0\nsamples = 1\nvalue = [0, 0, 1, 0]\nclass = NA_Sales", fillcolor="#399de5"] ;
103 -> 104 ;
105 [label="User_Count <= 11.0\ngini = 0.444\nsamples = 6\nvalue = [4, 2, 0, 0]\nclass = EU_Sales", fillcolor="#f2c09c"] ;
103 -> 105 ;
106 [label="gini = 0.0\nsamples = 1\nvalue = [0, 1, 0, 0]\nclass = JP_Sales", fillcolor="#47e539"] ;
105 -> 106 ;
107 [label="Developer_Team 17 <= 0.5\ngini = 0.32\nsamples = 5\nvalue = [4, 1, 0, 0]\nclass = EU_Sales", fillcolor="#eca06a"] ;
105 -> 107 ;
108 [label="gini = 0.0\nsamples = 4\nvalue = [4, 0, 0, 0]\nclass = EU_Sales", fillcolor="#e58139"] ;
107 -> 108 ;
109 [label="gini = 0.0\nsamples = 1\nvalue = [0, 1, 0, 0]\nclass = JP_Sales", fillcolor="#47e539"] ;
107 -> 109 ;
110 [label="Year_of_Release_2013.0 <= 0.5\ngini = 0.32\nsamples = 16\nvalue = [13, 2, 1, 0]\nclass = EU_Sales", fillcolor="#eb9c63"] ;
88 -> 110 ;
111 [label="Publisher_505 Games <= 0.5\ngini = 0.231\nsamples = 15\nvalue = [13, 2, 0, 0]\nclass = EU_Sales", fillcolor="#e99457"] ;
110 -> 111 ;
112 [label="Publisher_Take-Two Interactive <= 0.5\ngini = 0.133\nsamples = 14\nvalue = [13, 1, 0, 0]\nclass = EU_Sales", fillcolor="#e78b48"] ;
111 -> 112 ;
113 [label="gini = 0.0\nsamples = 13\nvalue = [13, 0, 0, 0]\nclass = EU_Sales", fillcolor="#e58139"] ;
112 -> 113 ;
114 [label="gini = 0.0\nsamples = 1\nvalue = [0, 1, 0, 0]\nclass = JP_Sales", fillcolor="#47e539"] ;
112 -> 114 ;
115 [label="gini = 0.0\nsamples = 1\nvalue = [0, 1, 0, 0]\nclass = JP_Sales", fillcolor="#47e539"] ;
111 -> 115 ;
116 [label="gini = 0.0\nsamples = 1\nvalue = [0, 0, 1, 0]\nclass = NA_Sales", fillcolor="#399de5"] ;
110 -> 116 ;
117 [label="Year_of_Release_2006.0 <= 0.5\ngini = 0.375\nsamples = 4\nvalue = [1, 3, 0, 0]\nclass = JP_Sales", fillcolor="#84ee7b"] ;
79 -> 117 ;
118 [label="gini = 0.0\nsamples = 3\nvalue = [0, 3, 0, 0]\nclass = JP_Sales", fillcolor="#47e539"] ;
117 -> 118 ;
119 [label="gini = 0.0\nsamples = 1\nvalue = [1, 0, 0, 0]\nclass = EU_Sales", fillcolor="#e58139"] ;
117 -> 119 ;
120 [label="gini = 0.0\nsamples = 2\nvalue = [0, 2, 0, 0]\nclass = JP_Sales", fillcolor="#47e539"] ;
78 -> 120 ;
121 [label="gini = 0.0\nsamples = 2\nvalue = [0, 0, 2, 0]\nclass = NA_Sales", fillcolor="#399de5"] ;
77 -> 121 ;
122 [label="gini = 0.0\nsamples = 3\nvalue = [0, 3, 0, 0]\nclass = JP_Sales", fillcolor="#47e539"] ;
76 -> 122 ;
123 [label="User_Count <= 65.0\ngini = 0.642\nsamples = 24\nvalue = [5, 6, 12, 1]\nclass = NA_Sales", fillcolor="#bddef6"] ;
75 -> 123 ;
124 [label="Platform_PS3 <= 0.5\ngini = 0.664\nsamples = 16\nvalue = [5, 6, 5, 0]\nclass = JP_Sales", fillcolor="#eefded"] ;
123 -> 124 ;
125 [label="User_Score <= 6.85\ngini = 0.569\nsamples = 12\nvalue = [5, 6, 1, 0]\nclass = JP_Sales", fillcolor="#e5fbe3"] ;
124 -> 125 ;
126 [label="gini = 0.0\nsamples = 3\nvalue = [0, 3, 0, 0]\nclass = JP_Sales", fillcolor="#47e539"] ;
125 -> 126 ;
127 [label="Year_of_Release_2016.0 <= 0.5\ngini = 0.568\nsamples = 9\nvalue = [5, 3, 1, 0]\nclass = EU_Sales", fillcolor="#f6d5bd"] ;
125 -> 127 ;
128 [label="Critic_Score <= 62.5\ngini = 0.449\nsamples = 7\nvalue = [5, 1, 1, 0]\nclass = EU_Sales", fillcolor="#eeab7b"] ;
127 -> 128 ;
129 [label="gini = 0.0\nsamples = 1\nvalue = [0, 0, 1, 0]\nclass = NA_Sales", fillcolor="#399de5"] ;
128 -> 129 ;
130 [label="Critic_Score <= 78.5\ngini = 0.278\nsamples = 6\nvalue = [5, 1, 0, 0]\nclass = EU_Sales", fillcolor="#ea9a61"] ;
128 -> 130 ;
131 [label="gini = 0.0\nsamples = 5\nvalue = [5, 0, 0, 0]\nclass = EU_Sales", fillcolor="#e58139"] ;
130 -> 131 ;
132 [label="gini = 0.0\nsamples = 1\nvalue = [0, 1, 0, 0]\nclass = JP_Sales", fillcolor="#47e539"] ;
130 -> 132 ;
133 [label="gini = 0.0\nsamples = 2\nvalue = [0, 2, 0, 0]\nclass = JP_Sales", fillcolor="#47e539"] ;
127 -> 133 ;
134 [label="gini = 0.0\nsamples = 4\nvalue = [0, 0, 4, 0]\nclass = NA_Sales", fillcolor="#399de5"] ;
124 -> 134 ;
135 [label="Publisher_Nintendo <= 0.5\ngini = 0.219\nsamples = 8\nvalue = [0, 0, 7, 1]\nclass = NA_Sales", fillcolor="#55abe9"] ;
123 -> 135 ;
136 [label="gini = 0.0\nsamples = 7\nvalue = [0, 0, 7, 0]\nclass = NA_Sales", fillcolor="#399de5"] ;
135 -> 136 ;
137 [label="gini = 0.0\nsamples = 1\nvalue = [0, 0, 0, 1]\nclass = Other_Sales", fillcolor="#d739e5"] ;
135 -> 137 ;
138 [label="gini = 0.0\nsamples = 5\nvalue = [0, 5, 0, 0]\nclass = JP_Sales", fillcolor="#47e539"] ;
74 -> 138 ;
139 [label="Developer_Konami <= 0.5\ngini = 0.117\nsamples = 16\nvalue = [0, 15, 1, 0]\nclass = JP_Sales", fillcolor="#53e746"] ;
55 -> 139 ;
140 [label="gini = 0.0\nsamples = 15\nvalue = [0, 15, 0, 0]\nclass = JP_Sales", fillcolor="#47e539"] ;
139 -> 140 ;
141 [label="gini = 0.0\nsamples = 1\nvalue = [0, 0, 1, 0]\nclass = NA_Sales", fillcolor="#399de5"] ;
139 -> 141 ;
142 [label="gini = 0.0\nsamples = 16\nvalue = [0, 16, 0, 0]\nclass = JP_Sales", fillcolor="#47e539"] ;
54 -> 142 ;
143 [label="Publisher_Phantagram <= 0.5\ngini = 0.043\nsamples = 45\nvalue = [0, 44, 0, 1]\nclass = JP_Sales", fillcolor="#4be63d"] ;
53 -> 143 ;
144 [label="gini = 0.0\nsamples = 44\nvalue = [0, 44, 0, 0]\nclass = JP_Sales", fillcolor="#47e539"] ;
143 -> 144 ;
145 [label="gini = 0.0\nsamples = 1\nvalue = [0, 0, 0, 1]\nclass = Other_Sales", fillcolor="#d739e5"] ;
143 -> 145 ;
146 [label="Year_of_Release_2007.0 <= 0.5\ngini = 0.287\nsamples = 49\nvalue = [2, 41, 5, 1]\nclass = JP_Sales", fillcolor="#68ea5d"] ;
2 -> 146 ;
147 [label="Global_Sales <= 0.015\ngini = 0.167\nsamples = 45\nvalue = [2, 41, 1, 1]\nclass = JP_Sales", fillcolor="#58e74b"] ;
146 -> 147 ;
148 [label="gini = 0.0\nsamples = 2\nvalue = [2, 0, 0, 0]\nclass = EU_Sales", fillcolor="#e58139"] ;
147 -> 148 ;
149 [label="Developer_Sumo Digital <= 0.5\ngini = 0.09\nsamples = 43\nvalue = [0, 41, 1, 1]\nclass = JP_Sales", fillcolor="#50e642"] ;
147 -> 149 ;
150 [label="Developer_Namco Bandai Games America <= 0.5\ngini = 0.046\nsamples = 42\nvalue = [0, 41, 1, 0]\nclass = JP_Sales", fillcolor="#4be63e"] ;
149 -> 150 ;
151 [label="gini = 0.0\nsamples = 41\nvalue = [0, 41, 0, 0]\nclass = JP_Sales", fillcolor="#47e539"] ;
150 -> 151 ;
152 [label="gini = 0.0\nsamples = 1\nvalue = [0, 0, 1, 0]\nclass = NA_Sales", fillcolor="#399de5"] ;
150 -> 152 ;
153 [label="gini = 0.0\nsamples = 1\nvalue = [0, 0, 0, 1]\nclass = Other_Sales", fillcolor="#d739e5"] ;
149 -> 153 ;
154 [label="gini = 0.0\nsamples = 4\nvalue = [0, 0, 4, 0]\nclass = NA_Sales", fillcolor="#399de5"] ;
146 -> 154 ;
155 [label="Global_Sales <= 0.035\ngini = 0.342\nsamples = 258\nvalue = [23, 29, 206, 0]\nclass = NA_Sales", fillcolor="#66b3eb"] ;
1 -> 155 ;
156 [label="Publisher_Activision <= 0.5\ngini = 0.279\nsamples = 181\nvalue = [22, 7, 152, 0]\nclass = NA_Sales", fillcolor="#5dafea"] ;
155 -> 156 ;
157 [label="Developer_Traveller's Tales <= 0.5\ngini = 0.234\nsamples = 168\nvalue = [16, 6, 146, 0]\nclass = NA_Sales", fillcolor="#56abe9"] ;
156 -> 157 ;
158 [label="Developer_Microsoft Game Studios <= 0.5\ngini = 0.217\nsamples = 166\nvalue = [15, 5, 146, 0]\nclass = NA_Sales", fillcolor="#53aae8"] ;
157 -> 158 ;
159 [label="Developer_Blue Byte <= 0.5\ngini = 0.208\nsamples = 165\nvalue = [15, 4, 146, 0]\nclass = NA_Sales", fillcolor="#52a9e8"] ;
158 -> 159 ;
160 [label="Publisher_Aspyr <= 0.5\ngini = 0.199\nsamples = 164\nvalue = [15, 3, 146, 0]\nclass = NA_Sales", fillcolor="#51a9e8"] ;
159 -> 160 ;
161 [label="Publisher_Evolved Games <= 0.5\ngini = 0.19\nsamples = 163\nvalue = [14, 3, 146, 0]\nclass = NA_Sales", fillcolor="#50a8e8"] ;
160 -> 161 ;
162 [label="Publisher_Paradox Interactive <= 0.5\ngini = 0.181\nsamples = 162\nvalue = [13, 3, 146, 0]\nclass = NA_Sales", fillcolor="#4ea8e8"] ;
161 -> 162 ;
163 [label="Year_of_Release_2011.0 <= 0.5\ngini = 0.156\nsamples = 155\nvalue = [10, 3, 142, 0]\nclass = NA_Sales", fillcolor="#4ba6e7"] ;
162 -> 163 ;
164 [label="Developer_Insomniac Games <= 0.5\ngini = 0.128\nsamples = 148\nvalue = [7, 3, 138, 0]\nclass = NA_Sales", fillcolor="#47a4e7"] ;
163 -> 164 ;
165 [label="Publisher_NCSoft <= 0.5\ngini = 0.117\nsamples = 147\nvalue = [6, 3, 138, 0]\nclass = NA_Sales", fillcolor="#46a3e7"] ;
164 -> 165 ;
166 [label="Publisher_Playlogic Game Factory <= 0.5\ngini = 0.105\nsamples = 146\nvalue = [5, 3, 138, 0]\nclass = NA_Sales", fillcolor="#44a3e6"] ;
165 -> 166 ;
167 [label="Year_of_Release_1992.0 <= 0.5\ngini = 0.093\nsamples = 145\nvalue = [4, 3, 138, 0]\nclass = NA_Sales", fillcolor="#43a2e6"] ;
166 -> 167 ;
168 [label="Developer_Ubisoft Romania <= 0.5\ngini = 0.081\nsamples = 144\nvalue = [3, 3, 138, 0]\nclass = NA_Sales", fillcolor="#41a1e6"] ;
167 -> 168 ;
169 [label="Developer_Saber Interactive <= 0.5\ngini = 0.068\nsamples = 143\nvalue = [2, 3, 138, 0]\nclass = NA_Sales", fillcolor="#40a0e6"] ;
168 -> 169 ;
170 [label="Developer_LucasArts <= 0.5\ngini = 0.055\nsamples = 142\nvalue = [1, 3, 138, 0]\nclass = NA_Sales", fillcolor="#3fa0e6"] ;
169 -> 170 ;
171 [label="Developer_Square Enix <= 0.5\ngini = 0.042\nsamples = 141\nvalue = [0, 3, 138, 0]\nclass = NA_Sales", fillcolor="#3d9fe6"] ;
170 -> 171 ;
172 [label="Developer_Maxis <= 0.5\ngini = 0.028\nsamples = 139\nvalue = [0, 2, 137, 0]\nclass = NA_Sales", fillcolor="#3c9ee5"] ;
171 -> 172 ;
173 [label="Developer_Digital Illusions <= 0.5\ngini = 0.014\nsamples = 137\nvalue = [0, 1, 136, 0]\nclass = NA_Sales", fillcolor="#3a9ee5"] ;
172 -> 173 ;
174 [label="gini = 0.0\nsamples = 135\nvalue = [0, 0, 135, 0]\nclass = NA_Sales", fillcolor="#399de5"] ;
173 -> 174 ;
175 [label="Year_of_Release_2004.0 <= 0.5\ngini = 0.5\nsamples = 2\nvalue = [0, 1, 1, 0]\nclass = JP_Sales", fillcolor="#ffffff"] ;
173 -> 175 ;
176 [label="gini = 0.0\nsamples = 1\nvalue = [0, 1, 0, 0]\nclass = JP_Sales", fillcolor="#47e539"] ;
175 -> 176 ;
177 [label="gini = 0.0\nsamples = 1\nvalue = [0, 0, 1, 0]\nclass = NA_Sales", fillcolor="#399de5"] ;
175 -> 177 ;
178 [label="Publisher_Maxis <= 0.5\ngini = 0.5\nsamples = 2\nvalue = [0, 1, 1, 0]\nclass = JP_Sales", fillcolor="#ffffff"] ;
172 -> 178 ;
179 [label="gini = 0.0\nsamples = 1\nvalue = [0, 1, 0, 0]\nclass = JP_Sales", fillcolor="#47e539"] ;
178 -> 179 ;
180 [label="gini = 0.0\nsamples = 1\nvalue = [0, 0, 1, 0]\nclass = NA_Sales", fillcolor="#399de5"] ;
178 -> 180 ;
181 [label="Rating_T <= 0.5\ngini = 0.5\nsamples = 2\nvalue = [0, 1, 1, 0]\nclass = JP_Sales", fillcolor="#ffffff"] ;
171 -> 181 ;
182 [label="gini = 0.0\nsamples = 1\nvalue = [0, 0, 1, 0]\nclass = NA_Sales", fillcolor="#399de5"] ;
181 -> 182 ;
183 [label="gini = 0.0\nsamples = 1\nvalue = [0, 1, 0, 0]\nclass = JP_Sales", fillcolor="#47e539"] ;
181 -> 183 ;
184 [label="gini = 0.0\nsamples = 1\nvalue = [1, 0, 0, 0]\nclass = EU_Sales", fillcolor="#e58139"] ;
170 -> 184 ;
185 [label="gini = 0.0\nsamples = 1\nvalue = [1, 0, 0, 0]\nclass = EU_Sales", fillcolor="#e58139"] ;
169 -> 185 ;
186 [label="gini = 0.0\nsamples = 1\nvalue = [1, 0, 0, 0]\nclass = EU_Sales", fillcolor="#e58139"] ;
168 -> 186 ;
187 [label="gini = 0.0\nsamples = 1\nvalue = [1, 0, 0, 0]\nclass = EU_Sales", fillcolor="#e58139"] ;
167 -> 187 ;
188 [label="gini = 0.0\nsamples = 1\nvalue = [1, 0, 0, 0]\nclass = EU_Sales", fillcolor="#e58139"] ;
166 -> 188 ;
189 [label="gini = 0.0\nsamples = 1\nvalue = [1, 0, 0, 0]\nclass = EU_Sales", fillcolor="#e58139"] ;
165 -> 189 ;
190 [label="gini = 0.0\nsamples = 1\nvalue = [1, 0, 0, 0]\nclass = EU_Sales", fillcolor="#e58139"] ;
164 -> 190 ;
191 [label="User_Count <= 38.0\ngini = 0.49\nsamples = 7\nvalue = [3, 0, 4, 0]\nclass = NA_Sales", fillcolor="#cee6f8"] ;
163 -> 191 ;
192 [label="gini = 0.0\nsamples = 4\nvalue = [0, 0, 4, 0]\nclass = NA_Sales", fillcolor="#399de5"] ;
191 -> 192 ;
193 [label="gini = 0.0\nsamples = 3\nvalue = [3, 0, 0, 0]\nclass = EU_Sales", fillcolor="#e58139"] ;
191 -> 193 ;
194 [label="Year_of_Release_2009.0 <= 0.5\ngini = 0.49\nsamples = 7\nvalue = [3, 0, 4, 0]\nclass = NA_Sales", fillcolor="#cee6f8"] ;
162 -> 194 ;
195 [label="gini = 0.0\nsamples = 4\nvalue = [0, 0, 4, 0]\nclass = NA_Sales", fillcolor="#399de5"] ;
194 -> 195 ;
196 [label="gini = 0.0\nsamples = 3\nvalue = [3, 0, 0, 0]\nclass = EU_Sales", fillcolor="#e58139"] ;
194 -> 196 ;
197 [label="gini = 0.0\nsamples = 1\nvalue = [1, 0, 0, 0]\nclass = EU_Sales", fillcolor="#e58139"] ;
161 -> 197 ;
198 [label="gini = 0.0\nsamples = 1\nvalue = [1, 0, 0, 0]\nclass = EU_Sales", fillcolor="#e58139"] ;
160 -> 198 ;
199 [label="gini = 0.0\nsamples = 1\nvalue = [0, 1, 0, 0]\nclass = JP_Sales", fillcolor="#47e539"] ;
159 -> 199 ;
200 [label="gini = 0.0\nsamples = 1\nvalue = [0, 1, 0, 0]\nclass = JP_Sales", fillcolor="#47e539"] ;
158 -> 200 ;
201 [label="User_Score <= 7.25\ngini = 0.5\nsamples = 2\nvalue = [1, 1, 0, 0]\nclass = EU_Sales", fillcolor="#ffffff"] ;
157 -> 201 ;
202 [label="gini = 0.0\nsamples = 1\nvalue = [1, 0, 0, 0]\nclass = EU_Sales", fillcolor="#e58139"] ;
201 -> 202 ;
203 [label="gini = 0.0\nsamples = 1\nvalue = [0, 1, 0, 0]\nclass = JP_Sales", fillcolor="#47e539"] ;
201 -> 203 ;
204 [label="Global_Sales <= 0.015\ngini = 0.568\nsamples = 13\nvalue = [6, 1, 6, 0]\nclass = EU_Sales", fillcolor="#ffffff"] ;
156 -> 204 ;
205 [label="gini = 0.0\nsamples = 4\nvalue = [4, 0, 0, 0]\nclass = EU_Sales", fillcolor="#e58139"] ;
204 -> 205 ;
206 [label="User_Score <= 7.35\ngini = 0.494\nsamples = 9\nvalue = [2, 1, 6, 0]\nclass = NA_Sales", fillcolor="#8ec7f0"] ;
204 -> 206 ;
207 [label="User_Score <= 6.7\ngini = 0.625\nsamples = 4\nvalue = [2, 1, 1, 0]\nclass = EU_Sales", fillcolor="#f6d5bd"] ;
206 -> 207 ;
208 [label="User_Score <= 6.05\ngini = 0.5\nsamples = 2\nvalue = [0, 1, 1, 0]\nclass = JP_Sales", fillcolor="#ffffff"] ;
207 -> 208 ;
209 [label="gini = 0.0\nsamples = 1\nvalue = [0, 0, 1, 0]\nclass = NA_Sales", fillcolor="#399de5"] ;
208 -> 209 ;
210 [label="gini = 0.0\nsamples = 1\nvalue = [0, 1, 0, 0]\nclass = JP_Sales", fillcolor="#47e539"] ;
208 -> 210 ;
211 [label="gini = 0.0\nsamples = 2\nvalue = [2, 0, 0, 0]\nclass = EU_Sales", fillcolor="#e58139"] ;
207 -> 211 ;
212 [label="gini = 0.0\nsamples = 5\nvalue = [0, 0, 5, 0]\nclass = NA_Sales", fillcolor="#399de5"] ;
206 -> 212 ;
213 [label="Developer_Maxis <= 0.5\ngini = 0.426\nsamples = 77\nvalue = [1, 22, 54, 0]\nclass = NA_Sales", fillcolor="#8cc6f0"] ;
155 -> 213 ;
214 [label="Publisher_Microsoft Game Studios <= 0.5\ngini = 0.401\nsamples = 74\nvalue = [1, 19, 54, 0]\nclass = NA_Sales", fillcolor="#81c1ee"] ;
213 -> 214 ;
215 [label="Developer_Traveller's Tales <= 0.5\ngini = 0.363\nsamples = 69\nvalue = [1, 15, 53, 0]\nclass = NA_Sales", fillcolor="#74baed"] ;
214 -> 215 ;
216 [label="Rating_M <= 0.5\ngini = 0.336\nsamples = 67\nvalue = [1, 13, 53, 0]\nclass = NA_Sales", fillcolor="#6cb6ec"] ;
215 -> 216 ;
217 [label="User_Count <= 15.5\ngini = 0.198\nsamples = 45\nvalue = [0, 5, 40, 0]\nclass = NA_Sales", fillcolor="#52a9e8"] ;
216 -> 217 ;
218 [label="Publisher_Monte Christo Multimedia <= 0.5\ngini = 0.444\nsamples = 3\nvalue = [0, 2, 1, 0]\nclass = JP_Sales", fillcolor="#a3f29c"] ;
217 -> 218 ;
219 [label="gini = 0.0\nsamples = 2\nvalue = [0, 2, 0, 0]\nclass = JP_Sales", fillcolor="#47e539"] ;
218 -> 219 ;
220 [label="gini = 0.0\nsamples = 1\nvalue = [0, 0, 1, 0]\nclass = NA_Sales", fillcolor="#399de5"] ;
218 -> 220 ;
221 [label="Developer_THQ, 1C, 1C Company <= 0.5\ngini = 0.133\nsamples = 42\nvalue = [0, 3, 39, 0]\nclass = NA_Sales", fillcolor="#48a5e7"] ;
217 -> 221 ;
222 [label="Developer_Cyanide <= 0.5\ngini = 0.093\nsamples = 41\nvalue = [0, 2, 39, 0]\nclass = NA_Sales", fillcolor="#43a2e6"] ;
221 -> 222 ;
223 [label="Developer_Gas Powered Games <= 0.5\ngini = 0.049\nsamples = 40\nvalue = [0, 1, 39, 0]\nclass = NA_Sales", fillcolor="#3ea0e6"] ;
222 -> 223 ;
224 [label="gini = 0.0\nsamples = 38\nvalue = [0, 0, 38, 0]\nclass = NA_Sales", fillcolor="#399de5"] ;
223 -> 224 ;
225 [label="Global_Sales <= 0.045\ngini = 0.5\nsamples = 2\nvalue = [0, 1, 1, 0]\nclass = JP_Sales", fillcolor="#ffffff"] ;
223 -> 225 ;
226 [label="gini = 0.0\nsamples = 1\nvalue = [0, 1, 0, 0]\nclass = JP_Sales", fillcolor="#47e539"] ;
225 -> 226 ;
227 [label="gini = 0.0\nsamples = 1\nvalue = [0, 0, 1, 0]\nclass = NA_Sales", fillcolor="#399de5"] ;
225 -> 227 ;
228 [label="gini = 0.0\nsamples = 1\nvalue = [0, 1, 0, 0]\nclass = JP_Sales", fillcolor="#47e539"] ;
222 -> 228 ;
229 [label="gini = 0.0\nsamples = 1\nvalue = [0, 1, 0, 0]\nclass = JP_Sales", fillcolor="#47e539"] ;
221 -> 229 ;
230 [label="Critic_Score <= 73.0\ngini = 0.517\nsamples = 22\nvalue = [1, 8, 13, 0]\nclass = NA_Sales", fillcolor="#b8dcf6"] ;
216 -> 230 ;
231 [label="Publisher_Iceberg Interactive <= 0.5\ngini = 0.219\nsamples = 8\nvalue = [0, 1, 7, 0]\nclass = NA_Sales", fillcolor="#55abe9"] ;
230 -> 231 ;
232 [label="gini = 0.0\nsamples = 7\nvalue = [0, 0, 7, 0]\nclass = NA_Sales", fillcolor="#399de5"] ;
231 -> 232 ;
233 [label="gini = 0.0\nsamples = 1\nvalue = [0, 1, 0, 0]\nclass = JP_Sales", fillcolor="#47e539"] ;
231 -> 233 ;
234 [label="Critic_Score <= 87.5\ngini = 0.561\nsamples = 14\nvalue = [1, 7, 6, 0]\nclass = JP_Sales", fillcolor="#e8fce6"] ;
230 -> 234 ;
235 [label="Developer_Overkill Software <= 0.5\ngini = 0.46\nsamples = 10\nvalue = [1, 7, 2, 0]\nclass = JP_Sales", fillcolor="#8cef83"] ;
234 -> 235 ;
236 [label="Developer_GSC Game World <= 0.5\ngini = 0.346\nsamples = 9\nvalue = [0, 7, 2, 0]\nclass = JP_Sales", fillcolor="#7cec72"] ;
235 -> 236 ;
237 [label="Year_of_Release_2010.0 <= 0.5\ngini = 0.219\nsamples = 8\nvalue = [0, 7, 1, 0]\nclass = JP_Sales", fillcolor="#61e955"] ;
236 -> 237 ;
238 [label="gini = 0.0\nsamples = 7\nvalue = [0, 7, 0, 0]\nclass = JP_Sales", fillcolor="#47e539"] ;
237 -> 238 ;
239 [label="gini = 0.0\nsamples = 1\nvalue = [0, 0, 1, 0]\nclass = NA_Sales", fillcolor="#399de5"] ;
237 -> 239 ;
240 [label="gini = 0.0\nsamples = 1\nvalue = [0, 0, 1, 0]\nclass = NA_Sales", fillcolor="#399de5"] ;
236 -> 240 ;
241 [label="gini = 0.0\nsamples = 1\nvalue = [1, 0, 0, 0]\nclass = EU_Sales", fillcolor="#e58139"] ;
235 -> 241 ;
242 [label="gini = 0.0\nsamples = 4\nvalue = [0, 0, 4, 0]\nclass = NA_Sales", fillcolor="#399de5"] ;
234 -> 242 ;
243 [label="gini = 0.0\nsamples = 2\nvalue = [0, 2, 0, 0]\nclass = JP_Sales", fillcolor="#47e539"] ;
215 -> 243 ;
244 [label="Developer_Kuju Entertainment <= 0.5\ngini = 0.32\nsamples = 5\nvalue = [0, 4, 1, 0]\nclass = JP_Sales", fillcolor="#75ec6a"] ;
214 -> 244 ;
245 [label="gini = 0.0\nsamples = 4\nvalue = [0, 4, 0, 0]\nclass = JP_Sales", fillcolor="#47e539"] ;
244 -> 245 ;
246 [label="gini = 0.0\nsamples = 1\nvalue = [0, 0, 1, 0]\nclass = NA_Sales", fillcolor="#399de5"] ;
244 -> 246 ;
247 [label="gini = 0.0\nsamples = 3\nvalue = [0, 3, 0, 0]\nclass = JP_Sales", fillcolor="#47e539"] ;
213 -> 247 ;
248 [label="Publisher_Nintendo <= 0.5\ngini = 0.457\nsamples = 4810\nvalue = [622, 3436, 168, 584]\nclass = JP_Sales", fillcolor="#83ee7a"] ;
0 -> 248 [labeldistance=2.5, labelangle=-45, headlabel="False"] ;
249 [label="Genre_Role-Playing <= 0.5\ngini = 0.423\nsamples = 4590\nvalue = [588, 3405, 161, 436]\nclass = JP_Sales", fillcolor="#7ded74"] ;
248 -> 249 ;
250 [label="Platform_PSP <= 0.5\ngini = 0.375\nsamples = 4123\nvalue = [470, 3209, 137, 307]\nclass = JP_Sales", fillcolor="#75ec6b"] ;
249 -> 250 ;
251 [label="Platform_DS <= 0.5\ngini = 0.35\nsamples = 3909\nvalue = [376, 3112, 131, 290]\nclass = JP_Sales", fillcolor="#71eb66"] ;
250 -> 251 ;
252 [label="Publisher_Tecmo Koei <= 0.5\ngini = 0.327\nsamples = 3694\nvalue = [283, 3001, 128, 282]\nclass = JP_Sales", fillcolor="#6cea61"] ;
251 -> 252 ;
253 [label="Platform_PC <= 0.5\ngini = 0.313\nsamples = 3620\nvalue = [277, 2975, 121, 247]\nclass = JP_Sales", fillcolor="#6bea5f"] ;
252 -> 253 ;
254 [label="Developer_Capcom <= 0.5\ngini = 0.296\nsamples = 3409\nvalue = [272, 2836, 55, 246]\nclass = JP_Sales", fillcolor="#69ea5d"] ;
253 -> 254 ;
255 [label="Publisher_Namco Bandai Games <= 0.5\ngini = 0.285\nsamples = 3344\nvalue = [270, 2807, 54, 213]\nclass = JP_Sales", fillcolor="#67ea5c"] ;
254 -> 255 ;
256 [label="Publisher_Konami Digital Entertainment <= 0.5\ngini = 0.268\nsamples = 3225\nvalue = [263, 2740, 45, 177]\nclass = JP_Sales", fillcolor="#65e959"] ;
255 -> 256 ;
257 [label="Developer_SCEA San Diego Studios <= 0.5\ngini = 0.247\nsamples = 3086\nvalue = [239, 2663, 37, 147]\nclass = JP_Sales", fillcolor="#62e956"] ;
256 -> 257 ;
258 [label="Developer_From Software <= 0.5\ngini = 0.242\nsamples = 3072\nvalue = [227, 2661, 37, 147]\nclass = JP_Sales", fillcolor="#62e956"] ;
257 -> 258 ;
259 [label="Global_Sales <= 0.225\ngini = 0.236\nsamples = 3060\nvalue = [224, 2661, 36, 139]\nclass = JP_Sales", fillcolor="#61e955"] ;
258 -> 259 ;
260 [label="Platform_Wii <= 0.5\ngini = 0.324\nsamples = 981\nvalue = [137, 794, 26, 24]\nclass = JP_Sales", fillcolor="#70eb65"] ;
259 -> 260 ;
261 [label="Platform_X360 <= 0.5\ngini = 0.284\nsamples = 892\nvalue = [95, 748, 26, 23]\nclass = JP_Sales", fillcolor="#68ea5d"] ;
260 -> 261 ;
262 [label="Platform_PS3 <= 0.5\ngini = 0.223\nsamples = 745\nvalue = [49, 654, 25, 17]\nclass = JP_Sales", fillcolor="#5fe853"] ;
261 -> 262 ;
263 [label="Platform_PSV <= 0.5\ngini = 0.16\nsamples = 648\nvalue = [22, 593, 20, 13]\nclass = JP_Sales", fillcolor="#57e74a"] ;
262 -> 263 ;
264 [label="Platform_DC <= 0.5\ngini = 0.123\nsamples = 623\nvalue = [14, 583, 13, 13]\nclass = JP_Sales", fillcolor="#53e746"] ;
263 -> 264 ;
265 [label="Platform_PS4 <= 0.5\ngini = 0.112\nsamples = 619\nvalue = [14, 583, 9, 13]\nclass = JP_Sales", fillcolor="#52e745"] ;
264 -> 265 ;
266 [label="Genre_Puzzle <= 0.5\ngini = 0.083\nsamples = 586\nvalue = [10, 561, 2, 13]\nclass = JP_Sales", fillcolor="#4fe642"] ;
265 -> 266 ;
267 [label="Publisher_Marvelous Entertainment <= 0.5\ngini = 0.074\nsamples = 582\nvalue = [7, 560, 2, 13]\nclass = JP_Sales", fillcolor="#4ee641"] ;
266 -> 267 ;
268 [label="Developer_SNK Playmore <= 0.5\ngini = 0.067\nsamples = 580\nvalue = [6, 560, 2, 12]\nclass = JP_Sales", fillcolor="#4de640"] ;
267 -> 268 ;
269 [label="Publisher_Aksys Games <= 0.5\ngini = 0.061\nsamples = 577\nvalue = [6, 559, 2, 10]\nclass = JP_Sales", fillcolor="#4de63f"] ;
268 -> 269 ;
270 [label="Developer_Shin'en <= 0.5\ngini = 0.058\nsamples = 576\nvalue = [5, 559, 2, 10]\nclass = JP_Sales", fillcolor="#4de63f"] ;
269 -> 270 ;
271 [label="Developer_Human Entertainment <= 0.5\ngini = 0.055\nsamples = 575\nvalue = [4, 559, 2, 10]\nclass = JP_Sales", fillcolor="#4ce63f"] ;
270 -> 271 ;
272 [label="Developer_Yuke's <= 0.5\ngini = 0.051\nsamples = 574\nvalue = [3, 559, 2, 10]\nclass = JP_Sales", fillcolor="#4ce63e"] ;
271 -> 272 ;
273 [label="Developer_Yacht Club Games <= 0.5\ngini = 0.048\nsamples = 573\nvalue = [3, 559, 2, 9]\nclass = JP_Sales", fillcolor="#4ce63e"] ;
272 -> 273 ;
274 [label="Developer_Koei/Inis <= 0.5\ngini = 0.045\nsamples = 572\nvalue = [3, 559, 2, 8]\nclass = JP_Sales", fillcolor="#4be63e"] ;
273 -> 274 ;
275 [label="Developer_Examu <= 0.5\ngini = 0.041\nsamples = 571\nvalue = [3, 559, 2, 7]\nclass = JP_Sales", fillcolor="#4be63d"] ;
274 -> 275 ;
276 [label="Developer_Visual Sciences <= 0.5\ngini = 0.038\nsamples = 570\nvalue = [3, 559, 2, 6]\nclass = JP_Sales", fillcolor="#4be63d"] ;
275 -> 276 ;
277 [label="Developer_Cavia Inc. <= 0.5\ngini = 0.035\nsamples = 569\nvalue = [3, 559, 2, 5]\nclass = JP_Sales", fillcolor="#4ae53d"] ;
276 -> 277 ;
278 [label="Developer_Sun-Tec <= 0.5\ngini = 0.031\nsamples = 568\nvalue = [3, 559, 2, 4]\nclass = JP_Sales", fillcolor="#4ae53c"] ;
277 -> 278 ;
279 [label="Developer_WayForward <= 0.5\ngini = 0.028\nsamples = 567\nvalue = [3, 559, 2, 3]\nclass = JP_Sales", fillcolor="#4ae53c"] ;
278 -> 279 ;
280 [label="Developer_Digital Eclipse <= 0.5\ngini = 0.021\nsamples = 562\nvalue = [2, 556, 1, 3]\nclass = JP_Sales", fillcolor="#49e53b"] ;
279 -> 280 ;
281 [label="Developer_Irem <= 0.5\ngini = 0.018\nsamples = 560\nvalue = [1, 555, 1, 3]\nclass = JP_Sales", fillcolor="#49e53b"] ;
280 -> 281 ;
282 [label="Developer_Clover Studio <= 0.5\ngini = 0.014\nsamples = 558\nvalue = [1, 554, 1, 2]\nclass = JP_Sales", fillcolor="#48e53a"] ;
281 -> 282 ;
283 [label="Year_of_Release_2009.0 <= 0.5\ngini = 0.011\nsamples = 555\nvalue = [1, 552, 0, 2]\nclass = JP_Sales", fillcolor="#48e53a"] ;
282 -> 283 ;
284 [label="Developer_Smilebit <= 0.5\ngini = 0.007\nsamples = 552\nvalue = [0, 550, 0, 2]\nclass = JP_Sales", fillcolor="#48e53a"] ;
283 -> 284 ;
285 [label="Developer_Tecmo <= 0.5\ngini = 0.004\nsamples = 549\nvalue = [0, 548, 0, 1]\nclass = JP_Sales", fillcolor="#47e539"] ;
284 -> 285 ;
286 [label="gini = 0.0\nsamples = 544\nvalue = [0, 544, 0, 0]\nclass = JP_Sales", fillcolor="#47e539"] ;
285 -> 286 ;
287 [label="Year_of_Release_2002.0 <= 0.5\ngini = 0.32\nsamples = 5\nvalue = [0, 4, 0, 1]\nclass = JP_Sales", fillcolor="#75ec6a"] ;
285 -> 287 ;
288 [label="gini = 0.0\nsamples = 4\nvalue = [0, 4, 0, 0]\nclass = JP_Sales", fillcolor="#47e539"] ;
287 -> 288 ;
289 [label="gini = 0.0\nsamples = 1\nvalue = [0, 0, 0, 1]\nclass = Other_Sales", fillcolor="#d739e5"] ;
287 -> 289 ;
290 [label="Critic_Score <= 84.0\ngini = 0.444\nsamples = 3\nvalue = [0, 2, 0, 1]\nclass = JP_Sales", fillcolor="#a3f29c"] ;
284 -> 290 ;
291 [label="gini = 0.0\nsamples = 2\nvalue = [0, 2, 0, 0]\nclass = JP_Sales", fillcolor="#47e539"] ;
290 -> 291 ;
292 [label="gini = 0.0\nsamples = 1\nvalue = [0, 0, 0, 1]\nclass = Other_Sales", fillcolor="#d739e5"] ;
290 -> 292 ;
293 [label="Publisher_D3Publisher <= 0.5\ngini = 0.444\nsamples = 3\nvalue = [1, 2, 0, 0]\nclass = JP_Sales", fillcolor="#a3f29c"] ;
283 -> 293 ;
294 [label="gini = 0.0\nsamples = 1\nvalue = [1, 0, 0, 0]\nclass = EU_Sales", fillcolor="#e58139"] ;
293 -> 294 ;
295 [label="gini = 0.0\nsamples = 2\nvalue = [0, 2, 0, 0]\nclass = JP_Sales", fillcolor="#47e539"] ;
293 -> 295 ;
296 [label="User_Count <= 91.0\ngini = 0.444\nsamples = 3\nvalue = [0, 2, 1, 0]\nclass = JP_Sales", fillcolor="#a3f29c"] ;
282 -> 296 ;
297 [label="gini = 0.0\nsamples = 2\nvalue = [0, 2, 0, 0]\nclass = JP_Sales", fillcolor="#47e539"] ;
296 -> 297 ;
298 [label="gini = 0.0\nsamples = 1\nvalue = [0, 0, 1, 0]\nclass = NA_Sales", fillcolor="#399de5"] ;
296 -> 298 ;
299 [label="Rating_T <= 0.5\ngini = 0.5\nsamples = 2\nvalue = [0, 1, 0, 1]\nclass = JP_Sales", fillcolor="#ffffff"] ;
281 -> 299 ;
300 [label="gini = 0.0\nsamples = 1\nvalue = [0, 1, 0, 0]\nclass = JP_Sales", fillcolor="#47e539"] ;
299 -> 300 ;
301 [label="gini = 0.0\nsamples = 1\nvalue = [0, 0, 0, 1]\nclass = Other_Sales", fillcolor="#d739e5"] ;
299 -> 301 ;
302 [label="Year_of_Release_2016.0 <= 0.5\ngini = 0.5\nsamples = 2\nvalue = [1, 1, 0, 0]\nclass = EU_Sales", fillcolor="#ffffff"] ;
280 -> 302 ;
303 [label="gini = 0.0\nsamples = 1\nvalue = [0, 1, 0, 0]\nclass = JP_Sales", fillcolor="#47e539"] ;
302 -> 303 ;
304 [label="gini = 0.0\nsamples = 1\nvalue = [1, 0, 0, 0]\nclass = EU_Sales", fillcolor="#e58139"] ;
302 -> 304 ;
305 [label="Critic_Score <= 64.5\ngini = 0.56\nsamples = 5\nvalue = [1, 3, 1, 0]\nclass = JP_Sales", fillcolor="#a3f29c"] ;
279 -> 305 ;
306 [label="gini = 0.0\nsamples = 3\nvalue = [0, 3, 0, 0]\nclass = JP_Sales", fillcolor="#47e539"] ;
305 -> 306 ;
307 [label="Rating_E <= 0.5\ngini = 0.5\nsamples = 2\nvalue = [1, 0, 1, 0]\nclass = EU_Sales", fillcolor="#ffffff"] ;
305 -> 307 ;
308 [label="gini = 0.0\nsamples = 1\nvalue = [0, 0, 1, 0]\nclass = NA_Sales", fillcolor="#399de5"] ;
307 -> 308 ;
309 [label="gini = 0.0\nsamples = 1\nvalue = [1, 0, 0, 0]\nclass = EU_Sales", fillcolor="#e58139"] ;
307 -> 309 ;
310 [label="gini = 0.0\nsamples = 1\nvalue = [0, 0, 0, 1]\nclass = Other_Sales", fillcolor="#d739e5"] ;
278 -> 310 ;
311 [label="gini = 0.0\nsamples = 1\nvalue = [0, 0, 0, 1]\nclass = Other_Sales", fillcolor="#d739e5"] ;
277 -> 311 ;
312 [label="gini = 0.0\nsamples = 1\nvalue = [0, 0, 0, 1]\nclass = Other_Sales", fillcolor="#d739e5"] ;
276 -> 312 ;
313 [label="gini = 0.0\nsamples = 1\nvalue = [0, 0, 0, 1]\nclass = Other_Sales", fillcolor="#d739e5"] ;
275 -> 313 ;
314 [label="gini = 0.0\nsamples = 1\nvalue = [0, 0, 0, 1]\nclass = Other_Sales", fillcolor="#d739e5"] ;
274 -> 314 ;
315 [label="gini = 0.0\nsamples = 1\nvalue = [0, 0, 0, 1]\nclass = Other_Sales", fillcolor="#d739e5"] ;
273 -> 315 ;
316 [label="gini = 0.0\nsamples = 1\nvalue = [0, 0, 0, 1]\nclass = Other_Sales", fillcolor="#d739e5"] ;
272 -> 316 ;
317 [label="gini = 0.0\nsamples = 1\nvalue = [1, 0, 0, 0]\nclass = EU_Sales", fillcolor="#e58139"] ;
271 -> 317 ;
318 [label="gini = 0.0\nsamples = 1\nvalue = [1, 0, 0, 0]\nclass = EU_Sales", fillcolor="#e58139"] ;
270 -> 318 ;
319 [label="gini = 0.0\nsamples = 1\nvalue = [1, 0, 0, 0]\nclass = EU_Sales", fillcolor="#e58139"] ;
269 -> 319 ;
320 [label="Year_of_Release_2006.0 <= 0.5\ngini = 0.444\nsamples = 3\nvalue = [0, 1, 0, 2]\nclass = Other_Sales", fillcolor="#eb9cf2"] ;
268 -> 320 ;
321 [label="gini = 0.0\nsamples = 1\nvalue = [0, 1, 0, 0]\nclass = JP_Sales", fillcolor="#47e539"] ;
320 -> 321 ;
322 [label="gini = 0.0\nsamples = 2\nvalue = [0, 0, 0, 2]\nclass = Other_Sales", fillcolor="#d739e5"] ;
320 -> 322 ;
323 [label="Genre_Simulation <= 0.5\ngini = 0.5\nsamples = 2\nvalue = [1, 0, 0, 1]\nclass = EU_Sales", fillcolor="#ffffff"] ;
267 -> 323 ;
324 [label="gini = 0.0\nsamples = 1\nvalue = [0, 0, 0, 1]\nclass = Other_Sales", fillcolor="#d739e5"] ;
323 -> 324 ;
325 [label="gini = 0.0\nsamples = 1\nvalue = [1, 0, 0, 0]\nclass = EU_Sales", fillcolor="#e58139"] ;
323 -> 325 ;
326 [label="Developer_Hudson <= 0.5\ngini = 0.375\nsamples = 4\nvalue = [3, 1, 0, 0]\nclass = EU_Sales", fillcolor="#eeab7b"] ;
266 -> 326 ;
327 [label="gini = 0.0\nsamples = 3\nvalue = [3, 0, 0, 0]\nclass = EU_Sales", fillcolor="#e58139"] ;
326 -> 327 ;
328 [label="gini = 0.0\nsamples = 1\nvalue = [0, 1, 0, 0]\nclass = JP_Sales", fillcolor="#47e539"] ;
326 -> 328 ;
329 [label="Global_Sales <= 0.135\ngini = 0.496\nsamples = 33\nvalue = [4, 22, 7, 0]\nclass = JP_Sales", fillcolor="#95f08d"] ;
265 -> 329 ;
330 [label="Rating_T <= 0.5\ngini = 0.595\nsamples = 17\nvalue = [2, 8, 7, 0]\nclass = JP_Sales", fillcolor="#edfceb"] ;
329 -> 330 ;
331 [label="User_Score <= 6.2\ngini = 0.46\nsamples = 10\nvalue = [1, 7, 2, 0]\nclass = JP_Sales", fillcolor="#8cef83"] ;
330 -> 331 ;
332 [label="Global_Sales <= 0.07\ngini = 0.625\nsamples = 4\nvalue = [1, 1, 2, 0]\nclass = NA_Sales", fillcolor="#bddef6"] ;
331 -> 332 ;
333 [label="gini = 0.0\nsamples = 2\nvalue = [0, 0, 2, 0]\nclass = NA_Sales", fillcolor="#399de5"] ;
332 -> 333 ;
334 [label="Global_Sales <= 0.095\ngini = 0.5\nsamples = 2\nvalue = [1, 1, 0, 0]\nclass = EU_Sales", fillcolor="#ffffff"] ;
332 -> 334 ;
335 [label="gini = 0.0\nsamples = 1\nvalue = [1, 0, 0, 0]\nclass = EU_Sales", fillcolor="#e58139"] ;
334 -> 335 ;
336 [label="gini = 0.0\nsamples = 1\nvalue = [0, 1, 0, 0]\nclass = JP_Sales", fillcolor="#47e539"] ;
334 -> 336 ;
337 [label="gini = 0.0\nsamples = 6\nvalue = [0, 6, 0, 0]\nclass = JP_Sales", fillcolor="#47e539"] ;
331 -> 337 ;
338 [label="Year_of_Release_2016.0 <= 0.5\ngini = 0.449\nsamples = 7\nvalue = [1, 1, 5, 0]\nclass = NA_Sales", fillcolor="#7bbeee"] ;
330 -> 338 ;
339 [label="gini = 0.0\nsamples = 5\nvalue = [0, 0, 5, 0]\nclass = NA_Sales", fillcolor="#399de5"] ;
338 -> 339 ;
340 [label="User_Score <= 6.95\ngini = 0.5\nsamples = 2\nvalue = [1, 1, 0, 0]\nclass = EU_Sales", fillcolor="#ffffff"] ;
338 -> 340 ;
341 [label="gini = 0.0\nsamples = 1\nvalue = [0, 1, 0, 0]\nclass = JP_Sales", fillcolor="#47e539"] ;
340 -> 341 ;
342 [label="gini = 0.0\nsamples = 1\nvalue = [1, 0, 0, 0]\nclass = EU_Sales", fillcolor="#e58139"] ;
340 -> 342 ;
343 [label="Developer_Marvelous Inc. <= 0.5\ngini = 0.219\nsamples = 16\nvalue = [2, 14, 0, 0]\nclass = JP_Sales", fillcolor="#61e955"] ;
329 -> 343 ;
344 [label="User_Score <= 8.55\ngini = 0.124\nsamples = 15\nvalue = [1, 14, 0, 0]\nclass = JP_Sales", fillcolor="#54e747"] ;
343 -> 344 ;
345 [label="gini = 0.0\nsamples = 14\nvalue = [0, 14, 0, 0]\nclass = JP_Sales", fillcolor="#47e539"] ;
344 -> 345 ;
346 [label="gini = 0.0\nsamples = 1\nvalue = [1, 0, 0, 0]\nclass = EU_Sales", fillcolor="#e58139"] ;
344 -> 346 ;
347 [label="gini = 0.0\nsamples = 1\nvalue = [1, 0, 0, 0]\nclass = EU_Sales", fillcolor="#e58139"] ;
343 -> 347 ;
348 [label="gini = 0.0\nsamples = 4\nvalue = [0, 0, 4, 0]\nclass = NA_Sales", fillcolor="#399de5"] ;
264 -> 348 ;
349 [label="User_Score <= 6.7\ngini = 0.659\nsamples = 25\nvalue = [8, 10, 7, 0]\nclass = JP_Sales", fillcolor="#e9fce8"] ;
263 -> 349 ;
350 [label="gini = 0.0\nsamples = 6\nvalue = [0, 6, 0, 0]\nclass = JP_Sales", fillcolor="#47e539"] ;
349 -> 350 ;
351 [label="Global_Sales <= 0.105\ngini = 0.643\nsamples = 19\nvalue = [8, 4, 7, 0]\nclass = EU_Sales", fillcolor="#fdf4ee"] ;
349 -> 351 ;
352 [label="User_Score <= 8.15\ngini = 0.46\nsamples = 10\nvalue = [2, 1, 7, 0]\nclass = NA_Sales", fillcolor="#83c2ef"] ;
351 -> 352 ;
353 [label="gini = 0.0\nsamples = 6\nvalue = [0, 0, 6, 0]\nclass = NA_Sales", fillcolor="#399de5"] ;
352 -> 353 ;
354 [label="Publisher_PQube <= 0.5\ngini = 0.625\nsamples = 4\nvalue = [2, 1, 1, 0]\nclass = EU_Sales", fillcolor="#f6d5bd"] ;
352 -> 354 ;
355 [label="gini = 0.0\nsamples = 2\nvalue = [2, 0, 0, 0]\nclass = EU_Sales", fillcolor="#e58139"] ;
354 -> 355 ;
356 [label="Year_of_Release_2013.0 <= 0.5\ngini = 0.5\nsamples = 2\nvalue = [0, 1, 1, 0]\nclass = JP_Sales", fillcolor="#ffffff"] ;
354 -> 356 ;
357 [label="gini = 0.0\nsamples = 1\nvalue = [0, 0, 1, 0]\nclass = NA_Sales", fillcolor="#399de5"] ;
356 -> 357 ;
358 [label="gini = 0.0\nsamples = 1\nvalue = [0, 1, 0, 0]\nclass = JP_Sales", fillcolor="#47e539"] ;
356 -> 358 ;
359 [label="User_Count <= 87.0\ngini = 0.444\nsamples = 9\nvalue = [6, 3, 0, 0]\nclass = EU_Sales", fillcolor="#f2c09c"] ;
351 -> 359 ;
360 [label="Developer_Traveller's Tales <= 0.5\ngini = 0.245\nsamples = 7\nvalue = [6, 1, 0, 0]\nclass = EU_Sales", fillcolor="#e9965a"] ;
359 -> 360 ;
361 [label="gini = 0.0\nsamples = 6\nvalue = [6, 0, 0, 0]\nclass = EU_Sales", fillcolor="#e58139"] ;
360 -> 361 ;
362 [label="gini = 0.0\nsamples = 1\nvalue = [0, 1, 0, 0]\nclass = JP_Sales", fillcolor="#47e539"] ;
360 -> 362 ;
363 [label="gini = 0.0\nsamples = 2\nvalue = [0, 2, 0, 0]\nclass = JP_Sales", fillcolor="#47e539"] ;
359 -> 363 ;
364 [label="Genre_Sports <= 0.5\ngini = 0.523\nsamples = 97\nvalue = [27, 61, 5, 4]\nclass = JP_Sales", fillcolor="#a6f29f"] ;
262 -> 364 ;
365 [label="Critic_Count <= 16.5\ngini = 0.436\nsamples = 78\nvalue = [12, 57, 5, 4]\nclass = JP_Sales", fillcolor="#82ed78"] ;
364 -> 365 ;
366 [label="User_Count <= 14.0\ngini = 0.554\nsamples = 28\nvalue = [11, 15, 2, 0]\nclass = JP_Sales", fillcolor="#d4f9d0"] ;
365 -> 366 ;
367 [label="Genre_Misc <= 0.5\ngini = 0.32\nsamples = 15\nvalue = [3, 12, 0, 0]\nclass = JP_Sales", fillcolor="#75ec6a"] ;
366 -> 367 ;
368 [label="Developer_Sidhe Interactive <= 0.5\ngini = 0.142\nsamples = 13\nvalue = [1, 12, 0, 0]\nclass = JP_Sales", fillcolor="#56e749"] ;
367 -> 368 ;
369 [label="gini = 0.0\nsamples = 12\nvalue = [0, 12, 0, 0]\nclass = JP_Sales", fillcolor="#47e539"] ;
368 -> 369 ;
370 [label="gini = 0.0\nsamples = 1\nvalue = [1, 0, 0, 0]\nclass = EU_Sales", fillcolor="#e58139"] ;
368 -> 370 ;
371 [label="gini = 0.0\nsamples = 2\nvalue = [2, 0, 0, 0]\nclass = EU_Sales", fillcolor="#e58139"] ;
367 -> 371 ;
372 [label="Publisher_PQube <= 0.5\ngini = 0.544\nsamples = 13\nvalue = [8, 3, 2, 0]\nclass = EU_Sales", fillcolor="#f2c09c"] ;
366 -> 372 ;
373 [label="Genre_Action <= 0.5\ngini = 0.397\nsamples = 11\nvalue = [8, 3, 0, 0]\nclass = EU_Sales", fillcolor="#efb083"] ;
372 -> 373 ;
374 [label="Developer_Team 17 <= 0.5\ngini = 0.219\nsamples = 8\nvalue = [7, 1, 0, 0]\nclass = EU_Sales", fillcolor="#e99355"] ;
373 -> 374 ;
375 [label="gini = 0.0\nsamples = 7\nvalue = [7, 0, 0, 0]\nclass = EU_Sales", fillcolor="#e58139"] ;
374 -> 375 ;
376 [label="gini = 0.0\nsamples = 1\nvalue = [0, 1, 0, 0]\nclass = JP_Sales", fillcolor="#47e539"] ;
374 -> 376 ;
377 [label="Critic_Count <= 13.5\ngini = 0.444\nsamples = 3\nvalue = [1, 2, 0, 0]\nclass = JP_Sales", fillcolor="#a3f29c"] ;
373 -> 377 ;
378 [label="gini = 0.0\nsamples = 2\nvalue = [0, 2, 0, 0]\nclass = JP_Sales", fillcolor="#47e539"] ;
377 -> 378 ;
379 [label="gini = 0.0\nsamples = 1\nvalue = [1, 0, 0, 0]\nclass = EU_Sales", fillcolor="#e58139"] ;
377 -> 379 ;
380 [label="gini = 0.0\nsamples = 2\nvalue = [0, 0, 2, 0]\nclass = NA_Sales", fillcolor="#399de5"] ;
372 -> 380 ;
381 [label="User_Score <= 7.9\ngini = 0.284\nsamples = 50\nvalue = [1, 42, 3, 4]\nclass = JP_Sales", fillcolor="#67ea5b"] ;
365 -> 381 ;
382 [label="Publisher_Ignition Entertainment <= 0.5\ngini = 0.2\nsamples = 46\nvalue = [1, 41, 1, 3]\nclass = JP_Sales", fillcolor="#5ce850"] ;
381 -> 382 ;
383 [label="Developer_Acquire <= 0.5\ngini = 0.165\nsamples = 45\nvalue = [0, 41, 1, 3]\nclass = JP_Sales", fillcolor="#59e74c"] ;
382 -> 383 ;
384 [label="Publisher_SouthPeak Games <= 0.5\ngini = 0.127\nsamples = 44\nvalue = [0, 41, 0, 3]\nclass = JP_Sales", fillcolor="#54e747"] ;
383 -> 384 ;
385 [label="Year_of_Release_2013.0 <= 0.5\ngini = 0.089\nsamples = 43\nvalue = [0, 41, 0, 2]\nclass = JP_Sales", fillcolor="#50e643"] ;
384 -> 385 ;
386 [label="Developer_Vicious Cycle <= 0.5\ngini = 0.048\nsamples = 41\nvalue = [0, 40, 0, 1]\nclass = JP_Sales", fillcolor="#4ce63e"] ;
385 -> 386 ;
387 [label="gini = 0.0\nsamples = 39\nvalue = [0, 39, 0, 0]\nclass = JP_Sales", fillcolor="#47e539"] ;
386 -> 387 ;
388 [label="User_Count <= 22.5\ngini = 0.5\nsamples = 2\nvalue = [0, 1, 0, 1]\nclass = JP_Sales", fillcolor="#ffffff"] ;
386 -> 388 ;
389 [label="gini = 0.0\nsamples = 1\nvalue = [0, 1, 0, 0]\nclass = JP_Sales", fillcolor="#47e539"] ;
388 -> 389 ;
390 [label="gini = 0.0\nsamples = 1\nvalue = [0, 0, 0, 1]\nclass = Other_Sales", fillcolor="#d739e5"] ;
388 -> 390 ;
391 [label="User_Score <= 6.55\ngini = 0.5\nsamples = 2\nvalue = [0, 1, 0, 1]\nclass = JP_Sales", fillcolor="#ffffff"] ;
385 -> 391 ;
392 [label="gini = 0.0\nsamples = 1\nvalue = [0, 0, 0, 1]\nclass = Other_Sales", fillcolor="#d739e5"] ;
391 -> 392 ;
393 [label="gini = 0.0\nsamples = 1\nvalue = [0, 1, 0, 0]\nclass = JP_Sales", fillcolor="#47e539"] ;
391 -> 393 ;
394 [label="gini = 0.0\nsamples = 1\nvalue = [0, 0, 0, 1]\nclass = Other_Sales", fillcolor="#d739e5"] ;
384 -> 394 ;
395 [label="gini = 0.0\nsamples = 1\nvalue = [0, 0, 1, 0]\nclass = NA_Sales", fillcolor="#399de5"] ;
383 -> 395 ;
396 [label="gini = 0.0\nsamples = 1\nvalue = [1, 0, 0, 0]\nclass = EU_Sales", fillcolor="#e58139"] ;
382 -> 396 ;
397 [label="User_Count <= 95.5\ngini = 0.625\nsamples = 4\nvalue = [0, 1, 2, 1]\nclass = NA_Sales", fillcolor="#bddef6"] ;
381 -> 397 ;
398 [label="gini = 0.0\nsamples = 2\nvalue = [0, 0, 2, 0]\nclass = NA_Sales", fillcolor="#399de5"] ;
397 -> 398 ;
399 [label="Genre_Action <= 0.5\ngini = 0.5\nsamples = 2\nvalue = [0, 1, 0, 1]\nclass = JP_Sales", fillcolor="#ffffff"] ;
397 -> 399 ;
400 [label="gini = 0.0\nsamples = 1\nvalue = [0, 1, 0, 0]\nclass = JP_Sales", fillcolor="#47e539"] ;
399 -> 400 ;
401 [label="gini = 0.0\nsamples = 1\nvalue = [0, 0, 0, 1]\nclass = Other_Sales", fillcolor="#d739e5"] ;
399 -> 401 ;
402 [label="Year_of_Release_2011.0 <= 0.5\ngini = 0.332\nsamples = 19\nvalue = [15, 4, 0, 0]\nclass = EU_Sales", fillcolor="#eca36e"] ;
364 -> 402 ;
403 [label="Developer_Gusto Games <= 0.5\ngini = 0.208\nsamples = 17\nvalue = [15, 2, 0, 0]\nclass = EU_Sales", fillcolor="#e89253"] ;
402 -> 403 ;
404 [label="Critic_Count <= 25.0\ngini = 0.117\nsamples = 16\nvalue = [15, 1, 0, 0]\nclass = EU_Sales", fillcolor="#e78946"] ;
403 -> 404 ;
405 [label="gini = 0.0\nsamples = 15\nvalue = [15, 0, 0, 0]\nclass = EU_Sales", fillcolor="#e58139"] ;
404 -> 405 ;
406 [label="gini = 0.0\nsamples = 1\nvalue = [0, 1, 0, 0]\nclass = JP_Sales", fillcolor="#47e539"] ;
404 -> 406 ;
407 [label="gini = 0.0\nsamples = 1\nvalue = [0, 1, 0, 0]\nclass = JP_Sales", fillcolor="#47e539"] ;
403 -> 407 ;
408 [label="gini = 0.0\nsamples = 2\nvalue = [0, 2, 0, 0]\nclass = JP_Sales", fillcolor="#47e539"] ;
402 -> 408 ;
409 [label="Publisher_Activision <= 0.5\ngini = 0.491\nsamples = 147\nvalue = [46, 94, 1, 6]\nclass = JP_Sales", fillcolor="#a8f3a1"] ;
261 -> 409 ;
410 [label="Critic_Score <= 74.5\ngini = 0.461\nsamples = 133\nvalue = [35, 91, 1, 6]\nclass = JP_Sales", fillcolor="#96f08e"] ;
409 -> 410 ;
411 [label="Critic_Count <= 4.5\ngini = 0.413\nsamples = 119\nvalue = [27, 87, 1, 4]\nclass = JP_Sales", fillcolor="#87ee7e"] ;
410 -> 411 ;
412 [label="User_Count <= 17.0\ngini = 0.444\nsamples = 9\nvalue = [6, 3, 0, 0]\nclass = EU_Sales", fillcolor="#f2c09c"] ;
411 -> 412 ;
413 [label="Publisher_Kalypso Media <= 0.5\ngini = 0.245\nsamples = 7\nvalue = [6, 1, 0, 0]\nclass = EU_Sales", fillcolor="#e9965a"] ;
412 -> 413 ;
414 [label="gini = 0.0\nsamples = 6\nvalue = [6, 0, 0, 0]\nclass = EU_Sales", fillcolor="#e58139"] ;
413 -> 414 ;
415 [label="gini = 0.0\nsamples = 1\nvalue = [0, 1, 0, 0]\nclass = JP_Sales", fillcolor="#47e539"] ;
413 -> 415 ;
416 [label="gini = 0.0\nsamples = 2\nvalue = [0, 2, 0, 0]\nclass = JP_Sales", fillcolor="#47e539"] ;
412 -> 416 ;
417 [label="Publisher_Ubisoft Annecy <= 0.5\ngini = 0.379\nsamples = 110\nvalue = [21, 84, 1, 4]\nclass = JP_Sales", fillcolor="#7ded73"] ;
411 -> 417 ;
418 [label="Global_Sales <= 0.115\ngini = 0.357\nsamples = 108\nvalue = [21, 84, 1, 2]\nclass = JP_Sales", fillcolor="#7aec70"] ;
417 -> 418 ;
419 [label="Rating_M <= 0.5\ngini = 0.459\nsamples = 42\nvalue = [15, 27, 0, 0]\nclass = JP_Sales", fillcolor="#adf3a7"] ;
418 -> 419 ;
420 [label="Year_of_Release_2011.0 <= 0.5\ngini = 0.499\nsamples = 29\nvalue = [14, 15, 0, 0]\nclass = JP_Sales", fillcolor="#f3fdf2"] ;
419 -> 420 ;
421 [label="Genre_Racing <= 0.5\ngini = 0.493\nsamples = 25\nvalue = [14, 11, 0, 0]\nclass = EU_Sales", fillcolor="#f9e4d5"] ;
420 -> 421 ;
422 [label="Genre_Action <= 0.5\ngini = 0.476\nsamples = 23\nvalue = [14, 9, 0, 0]\nclass = EU_Sales", fillcolor="#f6d2b8"] ;
421 -> 422 ;
423 [label="Critic_Score <= 40.5\ngini = 0.391\nsamples = 15\nvalue = [11, 4, 0, 0]\nclass = EU_Sales", fillcolor="#eeaf81"] ;
422 -> 423 ;
424 [label="gini = 0.0\nsamples = 2\nvalue = [0, 2, 0, 0]\nclass = JP_Sales", fillcolor="#47e539"] ;
423 -> 424 ;
425 [label="Publisher_Eidos Interactive <= 0.5\ngini = 0.26\nsamples = 13\nvalue = [11, 2, 0, 0]\nclass = EU_Sales", fillcolor="#ea985d"] ;
423 -> 425 ;
426 [label="Genre_Strategy <= 0.5\ngini = 0.153\nsamples = 12\nvalue = [11, 1, 0, 0]\nclass = EU_Sales", fillcolor="#e78c4b"] ;
425 -> 426 ;
427 [label="gini = 0.0\nsamples = 11\nvalue = [11, 0, 0, 0]\nclass = EU_Sales", fillcolor="#e58139"] ;
426 -> 427 ;
428 [label="gini = 0.0\nsamples = 1\nvalue = [0, 1, 0, 0]\nclass = JP_Sales", fillcolor="#47e539"] ;
426 -> 428 ;
429 [label="gini = 0.0\nsamples = 1\nvalue = [0, 1, 0, 0]\nclass = JP_Sales", fillcolor="#47e539"] ;
425 -> 429 ;
430 [label="User_Count <= 4.5\ngini = 0.469\nsamples = 8\nvalue = [3, 5, 0, 0]\nclass = JP_Sales", fillcolor="#b5f5b0"] ;
422 -> 430 ;
431 [label="gini = 0.0\nsamples = 1\nvalue = [1, 0, 0, 0]\nclass = EU_Sales", fillcolor="#e58139"] ;
430 -> 431 ;
432 [label="Critic_Count <= 15.5\ngini = 0.408\nsamples = 7\nvalue = [2, 5, 0, 0]\nclass = JP_Sales", fillcolor="#91ef88"] ;
430 -> 432 ;
433 [label="gini = 0.0\nsamples = 4\nvalue = [0, 4, 0, 0]\nclass = JP_Sales", fillcolor="#47e539"] ;
432 -> 433 ;
434 [label="Global_Sales <= 0.09\ngini = 0.444\nsamples = 3\nvalue = [2, 1, 0, 0]\nclass = EU_Sales", fillcolor="#f2c09c"] ;
432 -> 434 ;
435 [label="gini = 0.0\nsamples = 2\nvalue = [2, 0, 0, 0]\nclass = EU_Sales", fillcolor="#e58139"] ;
434 -> 435 ;
436 [label="gini = 0.0\nsamples = 1\nvalue = [0, 1, 0, 0]\nclass = JP_Sales", fillcolor="#47e539"] ;
434 -> 436 ;
437 [label="gini = 0.0\nsamples = 2\nvalue = [0, 2, 0, 0]\nclass = JP_Sales", fillcolor="#47e539"] ;
421 -> 437 ;
438 [label="gini = 0.0\nsamples = 4\nvalue = [0, 4, 0, 0]\nclass = JP_Sales", fillcolor="#47e539"] ;
420 -> 438 ;
439 [label="Publisher_Phantom EFX <= 0.5\ngini = 0.142\nsamples = 13\nvalue = [1, 12, 0, 0]\nclass = JP_Sales", fillcolor="#56e749"] ;
419 -> 439 ;
440 [label="gini = 0.0\nsamples = 12\nvalue = [0, 12, 0, 0]\nclass = JP_Sales", fillcolor="#47e539"] ;
439 -> 440 ;
441 [label="gini = 0.0\nsamples = 1\nvalue = [1, 0, 0, 0]\nclass = EU_Sales", fillcolor="#e58139"] ;
439 -> 441 ;
442 [label="Developer_Majesco Games, Majesco <= 0.5\ngini = 0.245\nsamples = 66\nvalue = [6, 57, 1, 2]\nclass = JP_Sales", fillcolor="#63e957"] ;
418 -> 442 ;
443 [label="Developer_PlatinumGames <= 0.5\ngini = 0.222\nsamples = 65\nvalue = [6, 57, 0, 2]\nclass = JP_Sales", fillcolor="#60e954"] ;
442 -> 443 ;
444 [label="Developer_Vicious Cycle <= 0.5\ngini = 0.198\nsamples = 64\nvalue = [6, 57, 0, 1]\nclass = JP_Sales", fillcolor="#5de851"] ;
443 -> 444 ;
445 [label="User_Score <= 4.3\ngini = 0.172\nsamples = 63\nvalue = [6, 57, 0, 0]\nclass = JP_Sales", fillcolor="#5ae84e"] ;
444 -> 445 ;
446 [label="Global_Sales <= 0.18\ngini = 0.49\nsamples = 7\nvalue = [3, 4, 0, 0]\nclass = JP_Sales", fillcolor="#d1f8ce"] ;
445 -> 446 ;
447 [label="User_Score <= 2.3\ngini = 0.32\nsamples = 5\nvalue = [1, 4, 0, 0]\nclass = JP_Sales", fillcolor="#75ec6a"] ;
446 -> 447 ;
448 [label="gini = 0.0\nsamples = 1\nvalue = [1, 0, 0, 0]\nclass = EU_Sales", fillcolor="#e58139"] ;
447 -> 448 ;
449 [label="gini = 0.0\nsamples = 4\nvalue = [0, 4, 0, 0]\nclass = JP_Sales", fillcolor="#47e539"] ;
447 -> 449 ;
450 [label="gini = 0.0\nsamples = 2\nvalue = [2, 0, 0, 0]\nclass = EU_Sales", fillcolor="#e58139"] ;
446 -> 450 ;
451 [label="Developer_Rainbow Studios <= 0.5\ngini = 0.101\nsamples = 56\nvalue = [3, 53, 0, 0]\nclass = JP_Sales", fillcolor="#51e644"] ;
445 -> 451 ;
452 [label="Developer_EA Canada <= 0.5\ngini = 0.07\nsamples = 55\nvalue = [2, 53, 0, 0]\nclass = JP_Sales", fillcolor="#4ee640"] ;
451 -> 452 ;
453 [label="gini = 0.0\nsamples = 51\nvalue = [0, 51, 0, 0]\nclass = JP_Sales", fillcolor="#47e539"] ;
452 -> 453 ;
454 [label="User_Count <= 17.0\ngini = 0.5\nsamples = 4\nvalue = [2, 2, 0, 0]\nclass = EU_Sales", fillcolor="#ffffff"] ;
452 -> 454 ;
455 [label="gini = 0.0\nsamples = 2\nvalue = [2, 0, 0, 0]\nclass = EU_Sales", fillcolor="#e58139"] ;
454 -> 455 ;
456 [label="gini = 0.0\nsamples = 2\nvalue = [0, 2, 0, 0]\nclass = JP_Sales", fillcolor="#47e539"] ;
454 -> 456 ;
457 [label="gini = 0.0\nsamples = 1\nvalue = [1, 0, 0, 0]\nclass = EU_Sales", fillcolor="#e58139"] ;
451 -> 457 ;
458 [label="gini = 0.0\nsamples = 1\nvalue = [0, 0, 0, 1]\nclass = Other_Sales", fillcolor="#d739e5"] ;
444 -> 458 ;
459 [label="gini = 0.0\nsamples = 1\nvalue = [0, 0, 0, 1]\nclass = Other_Sales", fillcolor="#d739e5"] ;
443 -> 459 ;
460 [label="gini = 0.0\nsamples = 1\nvalue = [0, 0, 1, 0]\nclass = NA_Sales", fillcolor="#399de5"] ;
442 -> 460 ;
461 [label="gini = 0.0\nsamples = 2\nvalue = [0, 0, 0, 2]\nclass = Other_Sales", fillcolor="#d739e5"] ;
417 -> 461 ;
462 [label="Genre_Sports <= 0.5\ngini = 0.571\nsamples = 14\nvalue = [8, 4, 0, 2]\nclass = EU_Sales", fillcolor="#f5cdb0"] ;
410 -> 462 ;
463 [label="Critic_Score <= 81.0\ngini = 0.642\nsamples = 9\nvalue = [3, 4, 0, 2]\nclass = JP_Sales", fillcolor="#e0fbde"] ;
462 -> 463 ;
464 [label="Global_Sales <= 0.155\ngini = 0.48\nsamples = 5\nvalue = [0, 3, 0, 2]\nclass = JP_Sales", fillcolor="#c2f6bd"] ;
463 -> 464 ;
465 [label="gini = 0.0\nsamples = 3\nvalue = [0, 3, 0, 0]\nclass = JP_Sales", fillcolor="#47e539"] ;
464 -> 465 ;
466 [label="gini = 0.0\nsamples = 2\nvalue = [0, 0, 0, 2]\nclass = Other_Sales", fillcolor="#d739e5"] ;
464 -> 466 ;
467 [label="Year_of_Release_2014.0 <= 0.5\ngini = 0.375\nsamples = 4\nvalue = [3, 1, 0, 0]\nclass = EU_Sales", fillcolor="#eeab7b"] ;
463 -> 467 ;
468 [label="gini = 0.0\nsamples = 3\nvalue = [3, 0, 0, 0]\nclass = EU_Sales", fillcolor="#e58139"] ;
467 -> 468 ;
469 [label="gini = 0.0\nsamples = 1\nvalue = [0, 1, 0, 0]\nclass = JP_Sales", fillcolor="#47e539"] ;
467 -> 469 ;
470 [label="gini = 0.0\nsamples = 5\nvalue = [5, 0, 0, 0]\nclass = EU_Sales", fillcolor="#e58139"] ;
462 -> 470 ;
471 [label="User_Score <= 6.3\ngini = 0.337\nsamples = 14\nvalue = [11, 3, 0, 0]\nclass = EU_Sales", fillcolor="#eca36f"] ;
409 -> 471 ;
472 [label="gini = 0.0\nsamples = 9\nvalue = [9, 0, 0, 0]\nclass = EU_Sales", fillcolor="#e58139"] ;
471 -> 472 ;
473 [label="Critic_Count <= 9.5\ngini = 0.48\nsamples = 5\nvalue = [2, 3, 0, 0]\nclass = JP_Sales", fillcolor="#c2f6bd"] ;
471 -> 473 ;
474 [label="gini = 0.0\nsamples = 2\nvalue = [2, 0, 0, 0]\nclass = EU_Sales", fillcolor="#e58139"] ;
473 -> 474 ;
475 [label="gini = 0.0\nsamples = 3\nvalue = [0, 3, 0, 0]\nclass = JP_Sales", fillcolor="#47e539"] ;
473 -> 475 ;
476 [label="Year_of_Release_2007.0 <= 0.5\ngini = 0.51\nsamples = 89\nvalue = [42, 46, 0, 1]\nclass = JP_Sales", fillcolor="#effdee"] ;
260 -> 476 ;
477 [label="User_Score <= 3.65\ngini = 0.494\nsamples = 69\nvalue = [27, 41, 0, 1]\nclass = JP_Sales", fillcolor="#c2f6bd"] ;
476 -> 477 ;
478 [label="User_Score <= 1.2\ngini = 0.219\nsamples = 8\nvalue = [7, 1, 0, 0]\nclass = EU_Sales", fillcolor="#e99355"] ;
477 -> 478 ;
479 [label="gini = 0.0\nsamples = 1\nvalue = [0, 1, 0, 0]\nclass = JP_Sales", fillcolor="#47e539"] ;
478 -> 479 ;
480 [label="gini = 0.0\nsamples = 7\nvalue = [7, 0, 0, 0]\nclass = EU_Sales", fillcolor="#e58139"] ;
478 -> 480 ;
481 [label="Year_of_Release_2008.0 <= 0.5\ngini = 0.462\nsamples = 61\nvalue = [20, 40, 0, 1]\nclass = JP_Sales", fillcolor="#a5f29e"] ;
477 -> 481 ;
482 [label="Critic_Count <= 6.5\ngini = 0.356\nsamples = 36\nvalue = [7, 28, 0, 1]\nclass = JP_Sales", fillcolor="#7aec70"] ;
481 -> 482 ;
483 [label="Genre_Action <= 0.5\ngini = 0.49\nsamples = 7\nvalue = [4, 3, 0, 0]\nclass = EU_Sales", fillcolor="#f8e0ce"] ;
482 -> 483 ;
484 [label="gini = 0.0\nsamples = 4\nvalue = [4, 0, 0, 0]\nclass = EU_Sales", fillcolor="#e58139"] ;
483 -> 484 ;
485 [label="gini = 0.0\nsamples = 3\nvalue = [0, 3, 0, 0]\nclass = JP_Sales", fillcolor="#47e539"] ;
483 -> 485 ;
486 [label="Developer_Spike <= 0.5\ngini = 0.245\nsamples = 29\nvalue = [3, 25, 0, 1]\nclass = JP_Sales", fillcolor="#63e957"] ;
482 -> 486 ;
487 [label="Publisher_Reef Entertainment <= 0.5\ngini = 0.191\nsamples = 28\nvalue = [3, 25, 0, 0]\nclass = JP_Sales", fillcolor="#5de851"] ;
486 -> 487 ;
488 [label="Developer_FeelPlus <= 0.5\ngini = 0.137\nsamples = 27\nvalue = [2, 25, 0, 0]\nclass = JP_Sales", fillcolor="#56e749"] ;
487 -> 488 ;
489 [label="Developer_Artificial Mind and Movement <= 0.5\ngini = 0.074\nsamples = 26\nvalue = [1, 25, 0, 0]\nclass = JP_Sales", fillcolor="#4ee641"] ;
488 -> 489 ;
490 [label="gini = 0.0\nsamples = 25\nvalue = [0, 25, 0, 0]\nclass = JP_Sales", fillcolor="#47e539"] ;
489 -> 490 ;
491 [label="gini = 0.0\nsamples = 1\nvalue = [1, 0, 0, 0]\nclass = EU_Sales", fillcolor="#e58139"] ;
489 -> 491 ;
492 [label="gini = 0.0\nsamples = 1\nvalue = [1, 0, 0, 0]\nclass = EU_Sales", fillcolor="#e58139"] ;
488 -> 492 ;
493 [label="gini = 0.0\nsamples = 1\nvalue = [1, 0, 0, 0]\nclass = EU_Sales", fillcolor="#e58139"] ;
487 -> 493 ;
494 [label="gini = 0.0\nsamples = 1\nvalue = [0, 0, 0, 1]\nclass = Other_Sales", fillcolor="#d739e5"] ;
486 -> 494 ;
495 [label="User_Score <= 7.75\ngini = 0.499\nsamples = 25\nvalue = [13, 12, 0, 0]\nclass = EU_Sales", fillcolor="#fdf5f0"] ;
481 -> 495 ;
496 [label="User_Count <= 15.5\ngini = 0.457\nsamples = 17\nvalue = [6, 11, 0, 0]\nclass = JP_Sales", fillcolor="#abf3a5"] ;
495 -> 496 ;
497 [label="Genre_Action <= 0.5\ngini = 0.278\nsamples = 12\nvalue = [2, 10, 0, 0]\nclass = JP_Sales", fillcolor="#6cea61"] ;
496 -> 497 ;
498 [label="gini = 0.0\nsamples = 10\nvalue = [0, 10, 0, 0]\nclass = JP_Sales", fillcolor="#47e539"] ;
497 -> 498 ;
499 [label="gini = 0.0\nsamples = 2\nvalue = [2, 0, 0, 0]\nclass = EU_Sales", fillcolor="#e58139"] ;
497 -> 499 ;
500 [label="Critic_Score <= 42.0\ngini = 0.32\nsamples = 5\nvalue = [4, 1, 0, 0]\nclass = EU_Sales", fillcolor="#eca06a"] ;
496 -> 500 ;
501 [label="gini = 0.0\nsamples = 1\nvalue = [0, 1, 0, 0]\nclass = JP_Sales", fillcolor="#47e539"] ;
500 -> 501 ;
502 [label="gini = 0.0\nsamples = 4\nvalue = [4, 0, 0, 0]\nclass = EU_Sales", fillcolor="#e58139"] ;
500 -> 502 ;
503 [label="User_Count <= 28.5\ngini = 0.219\nsamples = 8\nvalue = [7, 1, 0, 0]\nclass = EU_Sales", fillcolor="#e99355"] ;
495 -> 503 ;
504 [label="gini = 0.0\nsamples = 7\nvalue = [7, 0, 0, 0]\nclass = EU_Sales", fillcolor="#e58139"] ;
503 -> 504 ;
505 [label="gini = 0.0\nsamples = 1\nvalue = [0, 1, 0, 0]\nclass = JP_Sales", fillcolor="#47e539"] ;
503 -> 505 ;
506 [label="Global_Sales <= 0.125\ngini = 0.375\nsamples = 20\nvalue = [15, 5, 0, 0]\nclass = EU_Sales", fillcolor="#eeab7b"] ;
476 -> 506 ;
507 [label="User_Count <= 25.0\ngini = 0.494\nsamples = 9\nvalue = [5, 4, 0, 0]\nclass = EU_Sales", fillcolor="#fae6d7"] ;
506 -> 507 ;
508 [label="Genre_Fighting <= 0.5\ngini = 0.444\nsamples = 6\nvalue = [2, 4, 0, 0]\nclass = JP_Sales", fillcolor="#a3f29c"] ;
507 -> 508 ;
509 [label="gini = 0.0\nsamples = 4\nvalue = [0, 4, 0, 0]\nclass = JP_Sales", fillcolor="#47e539"] ;
508 -> 509 ;
510 [label="gini = 0.0\nsamples = 2\nvalue = [2, 0, 0, 0]\nclass = EU_Sales", fillcolor="#e58139"] ;
508 -> 510 ;
511 [label="gini = 0.0\nsamples = 3\nvalue = [3, 0, 0, 0]\nclass = EU_Sales", fillcolor="#e58139"] ;
507 -> 511 ;
512 [label="Developer_Krome Studios <= 0.5\ngini = 0.165\nsamples = 11\nvalue = [10, 1, 0, 0]\nclass = EU_Sales", fillcolor="#e88e4d"] ;
506 -> 512 ;
513 [label="gini = 0.0\nsamples = 10\nvalue = [10, 0, 0, 0]\nclass = EU_Sales", fillcolor="#e58139"] ;
512 -> 513 ;
514 [label="gini = 0.0\nsamples = 1\nvalue = [0, 1, 0, 0]\nclass = JP_Sales", fillcolor="#47e539"] ;
512 -> 514 ;
515 [label="Developer_Dimps Corporation <= 0.5\ngini = 0.189\nsamples = 2079\nvalue = [87, 1867, 10, 115]\nclass = JP_Sales", fillcolor="#5be84e"] ;
259 -> 515 ;
516 [label="Publisher_Capcom <= 0.5\ngini = 0.185\nsamples = 2074\nvalue = [87, 1867, 10, 110]\nclass = JP_Sales", fillcolor="#5ae84e"] ;
515 -> 516 ;
517 [label="Platform_3DS <= 0.5\ngini = 0.177\nsamples = 2042\nvalue = [86, 1848, 10, 98]\nclass = JP_Sales", fillcolor="#59e84d"] ;
516 -> 517 ;
518 [label="Developer_Clap Hanz <= 0.5\ngini = 0.169\nsamples = 2012\nvalue = [86, 1830, 9, 87]\nclass = JP_Sales", fillcolor="#58e74c"] ;
517 -> 518 ;
519 [label="Publisher_Spike <= 0.5\ngini = 0.166\nsamples = 2008\nvalue = [85, 1830, 9, 84]\nclass = JP_Sales", fillcolor="#58e74b"] ;
518 -> 519 ;
520 [label="Year_of_Release_1999.0 <= 0.5\ngini = 0.163\nsamples = 2003\nvalue = [81, 1829, 9, 84]\nclass = JP_Sales", fillcolor="#58e74b"] ;
519 -> 520 ;
521 [label="Publisher_Nippon Ichi Software <= 0.5\ngini = 0.158\nsamples = 1990\nvalue = [81, 1823, 8, 78]\nclass = JP_Sales", fillcolor="#57e74a"] ;
520 -> 521 ;
522 [label="Publisher_Sega <= 0.5\ngini = 0.154\nsamples = 1986\nvalue = [79, 1823, 8, 76]\nclass = JP_Sales", fillcolor="#57e74a"] ;
521 -> 522 ;
523 [label="Developer_Omega Force <= 0.5\ngini = 0.139\nsamples = 1890\nvalue = [72, 1751, 6, 61]\nclass = JP_Sales", fillcolor="#55e748"] ;
522 -> 523 ;
524 [label="Developer_Arc System Works <= 0.5\ngini = 0.136\nsamples = 1885\nvalue = [72, 1750, 5, 58]\nclass = JP_Sales", fillcolor="#55e748"] ;
523 -> 524 ;
525 [label="Developer_SCE Japan Studio <= 0.5\ngini = 0.131\nsamples = 1877\nvalue = [71, 1747, 5, 54]\nclass = JP_Sales", fillcolor="#54e747"] ;
524 -> 525 ;
526 [label="Developer_EA Tiburon <= 0.5\ngini = 0.127\nsamples = 1870\nvalue = [70, 1745, 4, 51]\nclass = JP_Sales", fillcolor="#54e747"] ;
525 -> 526 ;
527 [label="Developer_Square Enix <= 0.5\ngini = 0.118\nsamples = 1818\nvalue = [57, 1706, 4, 51]\nclass = JP_Sales", fillcolor="#53e746"] ;
526 -> 527 ;
528 [label="Developer_Polyphony Digital <= 0.5\ngini = 0.116\nsamples = 1816\nvalue = [57, 1706, 4, 49]\nclass = JP_Sales", fillcolor="#53e745"] ;
527 -> 528 ;
529 [label="Developer_Grasshopper Manufacture <= 0.5\ngini = 0.112\nsamples = 1810\nvalue = [56, 1704, 4, 46]\nclass = JP_Sales", fillcolor="#52e745"] ;
528 -> 529 ;
530 [label="Developer_Atlus <= 0.5\ngini = 0.108\nsamples = 1804\nvalue = [55, 1702, 4, 43]\nclass = JP_Sales", fillcolor="#52e745"] ;
529 -> 530 ;
531 [label="Publisher_Virgin Interactive <= 0.5\ngini = 0.106\nsamples = 1802\nvalue = [55, 1702, 4, 41]\nclass = JP_Sales", fillcolor="#52e644"] ;
530 -> 531 ;
532 [label="Developer_SCEJ <= 0.5\ngini = 0.105\nsamples = 1800\nvalue = [55, 1702, 4, 39]\nclass = JP_Sales", fillcolor="#51e644"] ;
531 -> 532 ;
533 [label="Developer_Spike, Namco Bandai Games <= 0.5\ngini = 0.103\nsamples = 1798\nvalue = [54, 1702, 4, 38]\nclass = JP_Sales", fillcolor="#51e644"] ;
532 -> 533 ;
534 [label="Developer_Team Ninja <= 0.5\ngini = 0.101\nsamples = 1796\nvalue = [53, 1702, 4, 37]\nclass = JP_Sales", fillcolor="#51e644"] ;
533 -> 534 ;
535 [label="Year_of_Release_1996.0 <= 0.5\ngini = 0.098\nsamples = 1790\nvalue = [53, 1699, 4, 34]\nclass = JP_Sales", fillcolor="#51e643"] ;
534 -> 535 ;
536 [label="Developer_Crispy's <= 0.5\ngini = 0.096\nsamples = 1787\nvalue = [53, 1698, 4, 32]\nclass = JP_Sales", fillcolor="#50e643"] ;
535 -> 536 ;
537 [label="Developer_K2 LLC <= 0.5\ngini = 0.095\nsamples = 1786\nvalue = [53, 1698, 3, 32]\nclass = JP_Sales", fillcolor="#50e643"] ;
536 -> 537 ;
538 [label="Publisher_Wanadoo <= 0.5\ngini = 0.094\nsamples = 1785\nvalue = [53, 1698, 3, 31]\nclass = JP_Sales", fillcolor="#50e643"] ;
537 -> 538 ;
539 [label="User_Score <= 9.55\ngini = 0.093\nsamples = 1784\nvalue = [53, 1698, 3, 30]\nclass = JP_Sales", fillcolor="#50e643"] ;
538 -> 539 ;
540 [label="Developer_Crafts & Meister <= 0.5\ngini = 0.092\nsamples = 1783\nvalue = [53, 1698, 3, 29]\nclass = JP_Sales", fillcolor="#50e643"] ;
539 -> 540 ;
541 [label="Developer_Overworks <= 0.5\ngini = 0.091\nsamples = 1782\nvalue = [53, 1698, 3, 28]\nclass = JP_Sales", fillcolor="#50e643"] ;
540 -> 541 ;
542 [label="Publisher_Gamebridge <= 0.5\ngini = 0.09\nsamples = 1781\nvalue = [53, 1698, 3, 27]\nclass = JP_Sales", fillcolor="#50e643"] ;
541 -> 542 ;
543 [label="Developer_Tamsoft <= 0.5\ngini = 0.089\nsamples = 1780\nvalue = [53, 1698, 3, 26]\nclass = JP_Sales", fillcolor="#50e642"] ;
542 -> 543 ;
544 [label="Developer_h.a.n.d. Inc. <= 0.5\ngini = 0.088\nsamples = 1779\nvalue = [53, 1698, 3, 25]\nclass = JP_Sales", fillcolor="#50e642"] ;
543 -> 544 ;
545 [label="Developer_Deep Space <= 0.5\ngini = 0.087\nsamples = 1778\nvalue = [53, 1698, 3, 24]\nclass = JP_Sales", fillcolor="#50e642"] ;
544 -> 545 ;
546 [label="Publisher_Ubisoft Annecy <= 0.5\ngini = 0.086\nsamples = 1777\nvalue = [53, 1698, 3, 23]\nclass = JP_Sales", fillcolor="#4fe642"] ;
545 -> 546 ;
547 [label="Publisher_Genki <= 0.5\ngini = 0.085\nsamples = 1776\nvalue = [53, 1698, 3, 22]\nclass = JP_Sales", fillcolor="#4fe642"] ;
546 -> 547 ;
548 [label="Developer_Light Weight <= 0.5\ngini = 0.084\nsamples = 1775\nvalue = [53, 1698, 3, 21]\nclass = JP_Sales", fillcolor="#4fe642"] ;
547 -> 548 ;
549 [label="Developer_Ignition Entertainment <= 0.5\ngini = 0.083\nsamples = 1774\nvalue = [53, 1698, 3, 20]\nclass = JP_Sales", fillcolor="#4fe642"] ;
548 -> 549 ;
550 [label="Developer_Sandlot <= 0.5\ngini = 0.082\nsamples = 1773\nvalue = [53, 1698, 3, 19]\nclass = JP_Sales", fillcolor="#4fe642"] ;
549 -> 550 ;
551 [label="Developer_Cave <= 0.5\ngini = 0.081\nsamples = 1772\nvalue = [53, 1698, 3, 18]\nclass = JP_Sales", fillcolor="#4fe642"] ;
550 -> 551 ;
552 [label="Developer_Zoom <= 0.5\ngini = 0.08\nsamples = 1771\nvalue = [53, 1698, 3, 17]\nclass = JP_Sales", fillcolor="#4fe641"] ;
551 -> 552 ;
553 [label="Developer_Koei <= 0.5\ngini = 0.079\nsamples = 1770\nvalue = [53, 1698, 3, 16]\nclass = JP_Sales", fillcolor="#4fe641"] ;
552 -> 553 ;
554 [label="Developer_DreamFactory <= 0.5\ngini = 0.078\nsamples = 1769\nvalue = [53, 1698, 3, 15]\nclass = JP_Sales", fillcolor="#4fe641"] ;
553 -> 554 ;
555 [label="Developer_Amusement Vision <= 0.5\ngini = 0.077\nsamples = 1768\nvalue = [53, 1698, 3, 14]\nclass = JP_Sales", fillcolor="#4fe641"] ;
554 -> 555 ;
556 [label="Developer_New <= 0.5\ngini = 0.076\nsamples = 1767\nvalue = [53, 1698, 3, 13]\nclass = JP_Sales", fillcolor="#4ee641"] ;
555 -> 556 ;
557 [label="Developer_Rockstar Leeds <= 0.5\ngini = 0.075\nsamples = 1766\nvalue = [53, 1698, 3, 12]\nclass = JP_Sales", fillcolor="#4ee641"] ;
556 -> 557 ;
558 [label="Developer_Machatin, Inc. <= 0.5\ngini = 0.074\nsamples = 1765\nvalue = [52, 1698, 3, 12]\nclass = JP_Sales", fillcolor="#4ee641"] ;
557 -> 558 ;
559 [label="Publisher_Destineer <= 0.5\ngini = 0.073\nsamples = 1764\nvalue = [51, 1698, 3, 12]\nclass = JP_Sales", fillcolor="#4ee641"] ;
558 -> 559 ;
560 [label="Developer_Neversoft Entertainment, BudCat <= 0.5\ngini = 0.072\nsamples = 1763\nvalue = [50, 1698, 3, 12]\nclass = JP_Sales", fillcolor="#4ee641"] ;
559 -> 560 ;
561 [label="Publisher_PopCap Games <= 0.5\ngini = 0.071\nsamples = 1762\nvalue = [49, 1698, 3, 12]\nclass = JP_Sales", fillcolor="#4ee640"] ;
560 -> 561 ;
562 [label="Publisher_Zoo Games <= 0.5\ngini = 0.069\nsamples = 1761\nvalue = [48, 1698, 3, 12]\nclass = JP_Sales", fillcolor="#4ee640"] ;
561 -> 562 ;
563 [label="Developer_Project Aces <= 0.5\ngini = 0.068\nsamples = 1760\nvalue = [47, 1698, 3, 12]\nclass = JP_Sales", fillcolor="#4ee640"] ;
562 -> 563 ;
564 [label="Developer_Game Arts <= 0.5\ngini = 0.067\nsamples = 1759\nvalue = [46, 1698, 3, 12]\nclass = JP_Sales", fillcolor="#4ee640"] ;
563 -> 564 ;
565 [label="Developer_Climax Group, Climax Studios <= 0.5\ngini = 0.066\nsamples = 1758\nvalue = [45, 1698, 3, 12]\nclass = JP_Sales", fillcolor="#4de640"] ;
564 -> 565 ;
566 [label="Developer_Falcom <= 0.5\ngini = 0.065\nsamples = 1757\nvalue = [44, 1698, 3, 12]\nclass = JP_Sales", fillcolor="#4de640"] ;
565 -> 566 ;
567 [label="Developer_Destination Software <= 0.5\ngini = 0.064\nsamples = 1756\nvalue = [43, 1698, 3, 12]\nclass = JP_Sales", fillcolor="#4de640"] ;
566 -> 567 ;
568 [label="Developer_Incinerator Games <= 0.5\ngini = 0.063\nsamples = 1755\nvalue = [42, 1698, 3, 12]\nclass = JP_Sales", fillcolor="#4de640"] ;
567 -> 568 ;
569 [label="Developer_MTO <= 0.5\ngini = 0.062\nsamples = 1754\nvalue = [41, 1698, 3, 12]\nclass = JP_Sales", fillcolor="#4de63f"] ;
568 -> 569 ;
570 [label="Developer_SCEA <= 0.5\ngini = 0.061\nsamples = 1753\nvalue = [40, 1698, 3, 12]\nclass = JP_Sales", fillcolor="#4de63f"] ;
569 -> 570 ;
571 [label="Developer_Namco <= 0.5\ngini = 0.059\nsamples = 1748\nvalue = [38, 1695, 3, 12]\nclass = JP_Sales", fillcolor="#4de63f"] ;
570 -> 571 ;
572 [label="Developer_Engine Software <= 0.5\ngini = 0.057\nsamples = 1742\nvalue = [38, 1691, 3, 10]\nclass = JP_Sales", fillcolor="#4de63f"] ;
571 -> 572 ;
573 [label="Developer_Blue Tongue Entertainment <= 0.5\ngini = 0.056\nsamples = 1740\nvalue = [38, 1690, 3, 9]\nclass = JP_Sales", fillcolor="#4ce63f"] ;
572 -> 573 ;
574 [label="Developer_Xpec <= 0.5\ngini = 0.055\nsamples = 1738\nvalue = [37, 1689, 3, 9]\nclass = JP_Sales", fillcolor="#4ce63f"] ;
573 -> 574 ;
575 [label="Developer_2K Sports <= 0.5\ngini = 0.054\nsamples = 1736\nvalue = [36, 1688, 3, 9]\nclass = JP_Sales", fillcolor="#4ce63f"] ;
574 -> 575 ;
576 [label="Developer_TOSE <= 0.5\ngini = 0.053\nsamples = 1734\nvalue = [35, 1687, 3, 9]\nclass = JP_Sales", fillcolor="#4ce63e"] ;
575 -> 576 ;
577 [label="Developer_Visual Concepts <= 0.5\ngini = 0.052\nsamples = 1732\nvalue = [34, 1686, 3, 9]\nclass = JP_Sales", fillcolor="#4ce63e"] ;
576 -> 577 ;
578 [label="Year_of_Release_2006.0 <= 0.5\ngini = 0.048\nsamples = 1701\nvalue = [30, 1659, 3, 9]\nclass = JP_Sales", fillcolor="#4ce63e"] ;
577 -> 578 ;
579 [label="Developer_Spike <= 0.5\ngini = 0.041\nsamples = 1615\nvalue = [24, 1581, 3, 7]\nclass = JP_Sales", fillcolor="#4be63d"] ;
578 -> 579 ;
580 [label="Developer_HB Studios Multimedia <= 0.5\ngini = 0.04\nsamples = 1613\nvalue = [24, 1580, 3, 6]\nclass = JP_Sales", fillcolor="#4be63d"] ;
579 -> 580 ;
581 [label="Developer_Codemasters Birmingham <= 0.5\ngini = 0.039\nsamples = 1610\nvalue = [24, 1578, 2, 6]\nclass = JP_Sales", fillcolor="#4be63d"] ;
580 -> 581 ;
582 [label="Year_of_Release_2008.0 <= 0.5\ngini = 0.038\nsamples = 1607\nvalue = [24, 1576, 1, 6]\nclass = JP_Sales", fillcolor="#4be63d"] ;
581 -> 582 ;
583 [label="Developer_Zoe Mode <= 0.5\ngini = 0.03\nsamples = 1457\nvalue = [15, 1435, 1, 6]\nclass = JP_Sales", fillcolor="#4ae53c"] ;
582 -> 583 ;
584 [label="Publisher_Rising Star Games <= 0.5\ngini = 0.029\nsamples = 1456\nvalue = [14, 1435, 1, 6]\nclass = JP_Sales", fillcolor="#4ae53c"] ;
583 -> 584 ;
585 [label="Developer_Blue Castle Games <= 0.5\ngini = 0.027\nsamples = 1453\nvalue = [14, 1433, 1, 5]\nclass = JP_Sales", fillcolor="#4ae53c"] ;
584 -> 585 ;
586 [label="Global_Sales <= 18.48\ngini = 0.026\nsamples = 1450\nvalue = [13, 1431, 1, 5]\nclass = JP_Sales", fillcolor="#49e53c"] ;
585 -> 586 ;
587 [label="Developer_Eutechnyx <= 0.5\ngini = 0.025\nsamples = 1447\nvalue = [12, 1429, 1, 5]\nclass = JP_Sales", fillcolor="#49e53b"] ;
586 -> 587 ;
588 [label="Developer_EA Salt Lake <= 0.5\ngini = 0.023\nsamples = 1443\nvalue = [11, 1426, 1, 5]\nclass = JP_Sales", fillcolor="#49e53b"] ;
587 -> 588 ;
589 [label="Developer_Double Helix Games <= 0.5\ngini = 0.022\nsamples = 1439\nvalue = [10, 1423, 1, 5]\nclass = JP_Sales", fillcolor="#49e53b"] ;
588 -> 589 ;
590 [label="Developer_Shiny Entertainment <= 0.5\ngini = 0.021\nsamples = 1434\nvalue = [10, 1419, 1, 4]\nclass = JP_Sales", fillcolor="#49e53b"] ;
589 -> 590 ;
591 [label="Developer_Activision <= 0.5\ngini = 0.019\nsamples = 1429\nvalue = [10, 1415, 1, 3]\nclass = JP_Sales", fillcolor="#49e53b"] ;
590 -> 591 ;
592 [label="Developer_Rare Ltd. <= 0.5\ngini = 0.018\nsamples = 1424\nvalue = [9, 1411, 1, 3]\nclass = JP_Sales", fillcolor="#49e53b"] ;
591 -> 592 ;
593 [label="Developer_Luxoflux, Inc. <= 0.5\ngini = 0.017\nsamples = 1419\nvalue = [8, 1407, 1, 3]\nclass = JP_Sales", fillcolor="#49e53b"] ;
592 -> 593 ;
594 [label="Developer_Acclaim <= 0.5\ngini = 0.015\nsamples = 1413\nvalue = [8, 1402, 1, 2]\nclass = JP_Sales", fillcolor="#48e53b"] ;
593 -> 594 ;
595 [label="Developer_Rocksteady Studios <= 0.5\ngini = 0.014\nsamples = 1406\nvalue = [8, 1396, 1, 1]\nclass = JP_Sales", fillcolor="#48e53a"] ;
594 -> 595 ;
596 [label="Developer_EA Sports <= 0.5\ngini = 0.013\nsamples = 1399\nvalue = [7, 1390, 1, 1]\nclass = JP_Sales", fillcolor="#48e53a"] ;
595 -> 596 ;
597 [label="Developer_Electronic Arts <= 0.5\ngini = 0.009\nsamples = 1324\nvalue = [4, 1318, 1, 1]\nclass = JP_Sales", fillcolor="#48e53a"] ;
596 -> 597 ;
598 [label="Developer_EA Canada <= 0.5\ngini = 0.006\nsamples = 1288\nvalue = [3, 1284, 0, 1]\nclass = JP_Sales", fillcolor="#48e53a"] ;
597 -> 598 ;
599 [label="Developer_Eurocom Entertainment Software <= 0.5\ngini = 0.003\nsamples = 1229\nvalue = [1, 1227, 0, 1]\nclass = JP_Sales", fillcolor="#47e539"] ;
598 -> 599 ;
600 [label="Developer_Yuke's <= 0.5\ngini = 0.002\nsamples = 1209\nvalue = [1, 1208, 0, 0]\nclass = JP_Sales", fillcolor="#47e539"] ;
599 -> 600 ;
601 [label="gini = 0.0\nsamples = 1182\nvalue = [0, 1182, 0, 0]\nclass = JP_Sales", fillcolor="#47e539"] ;
600 -> 601 ;
602 [label="Global_Sales <= 2.2\ngini = 0.071\nsamples = 27\nvalue = [1, 26, 0, 0]\nclass = JP_Sales", fillcolor="#4ee641"] ;
600 -> 602 ;
603 [label="gini = 0.0\nsamples = 26\nvalue = [0, 26, 0, 0]\nclass = JP_Sales", fillcolor="#47e539"] ;
602 -> 603 ;
604 [label="gini = 0.0\nsamples = 1\nvalue = [1, 0, 0, 0]\nclass = EU_Sales", fillcolor="#e58139"] ;
602 -> 604 ;
605 [label="Year_of_Release_2000.0 <= 0.5\ngini = 0.095\nsamples = 20\nvalue = [0, 19, 0, 1]\nclass = JP_Sales", fillcolor="#51e643"] ;
599 -> 605 ;
606 [label="gini = 0.0\nsamples = 19\nvalue = [0, 19, 0, 0]\nclass = JP_Sales", fillcolor="#47e539"] ;
605 -> 606 ;
607 [label="gini = 0.0\nsamples = 1\nvalue = [0, 0, 0, 1]\nclass = Other_Sales", fillcolor="#d739e5"] ;
605 -> 607 ;
608 [label="User_Count <= 6.5\ngini = 0.065\nsamples = 59\nvalue = [2, 57, 0, 0]\nclass = JP_Sales", fillcolor="#4de640"] ;
598 -> 608 ;
609 [label="Critic_Count <= 17.5\ngini = 0.5\nsamples = 2\nvalue = [1, 1, 0, 0]\nclass = EU_Sales", fillcolor="#ffffff"] ;
608 -> 609 ;
610 [label="gini = 0.0\nsamples = 1\nvalue = [1, 0, 0, 0]\nclass = EU_Sales", fillcolor="#e58139"] ;
609 -> 610 ;
611 [label="gini = 0.0\nsamples = 1\nvalue = [0, 1, 0, 0]\nclass = JP_Sales", fillcolor="#47e539"] ;
609 -> 611 ;
612 [label="Critic_Score <= 64.5\ngini = 0.034\nsamples = 57\nvalue = [1, 56, 0, 0]\nclass = JP_Sales", fillcolor="#4ae53d"] ;
608 -> 612 ;
613 [label="Critic_Count <= 32.0\ngini = 0.444\nsamples = 3\nvalue = [1, 2, 0, 0]\nclass = JP_Sales", fillcolor="#a3f29c"] ;
612 -> 613 ;
614 [label="gini = 0.0\nsamples = 2\nvalue = [0, 2, 0, 0]\nclass = JP_Sales", fillcolor="#47e539"] ;
613 -> 614 ;
615 [label="gini = 0.0\nsamples = 1\nvalue = [1, 0, 0, 0]\nclass = EU_Sales", fillcolor="#e58139"] ;
613 -> 615 ;
616 [label="gini = 0.0\nsamples = 54\nvalue = [0, 54, 0, 0]\nclass = JP_Sales", fillcolor="#47e539"] ;
612 -> 616 ;
617 [label="Platform_PSV <= 0.5\ngini = 0.106\nsamples = 36\nvalue = [1, 34, 1, 0]\nclass = JP_Sales", fillcolor="#52e644"] ;
597 -> 617 ;
618 [label="Genre_Racing <= 0.5\ngini = 0.057\nsamples = 34\nvalue = [1, 33, 0, 0]\nclass = JP_Sales", fillcolor="#4de63f"] ;
617 -> 618 ;
619 [label="gini = 0.0\nsamples = 32\nvalue = [0, 32, 0, 0]\nclass = JP_Sales", fillcolor="#47e539"] ;
618 -> 619 ;
620 [label="Critic_Count <= 18.5\ngini = 0.5\nsamples = 2\nvalue = [1, 1, 0, 0]\nclass = EU_Sales", fillcolor="#ffffff"] ;
618 -> 620 ;
621 [label="gini = 0.0\nsamples = 1\nvalue = [1, 0, 0, 0]\nclass = EU_Sales", fillcolor="#e58139"] ;
620 -> 621 ;
622 [label="gini = 0.0\nsamples = 1\nvalue = [0, 1, 0, 0]\nclass = JP_Sales", fillcolor="#47e539"] ;
620 -> 622 ;
623 [label="Critic_Score <= 68.0\ngini = 0.5\nsamples = 2\nvalue = [0, 1, 1, 0]\nclass = JP_Sales", fillcolor="#ffffff"] ;
617 -> 623 ;
624 [label="gini = 0.0\nsamples = 1\nvalue = [0, 0, 1, 0]\nclass = NA_Sales", fillcolor="#399de5"] ;
623 -> 624 ;
625 [label="gini = 0.0\nsamples = 1\nvalue = [0, 1, 0, 0]\nclass = JP_Sales", fillcolor="#47e539"] ;
623 -> 625 ;
626 [label="Year_of_Release_2007.0 <= 0.5\ngini = 0.077\nsamples = 75\nvalue = [3, 72, 0, 0]\nclass = JP_Sales", fillcolor="#4fe641"] ;
596 -> 626 ;
627 [label="Year_of_Release_2011.0 <= 0.5\ngini = 0.027\nsamples = 73\nvalue = [1, 72, 0, 0]\nclass = JP_Sales", fillcolor="#4ae53c"] ;
626 -> 627 ;
628 [label="gini = 0.0\nsamples = 72\nvalue = [0, 72, 0, 0]\nclass = JP_Sales", fillcolor="#47e539"] ;
627 -> 628 ;
629 [label="gini = 0.0\nsamples = 1\nvalue = [1, 0, 0, 0]\nclass = EU_Sales", fillcolor="#e58139"] ;
627 -> 629 ;
630 [label="gini = 0.0\nsamples = 2\nvalue = [2, 0, 0, 0]\nclass = EU_Sales", fillcolor="#e58139"] ;
626 -> 630 ;
631 [label="Global_Sales <= 0.895\ngini = 0.245\nsamples = 7\nvalue = [1, 6, 0, 0]\nclass = JP_Sales", fillcolor="#66e95a"] ;
595 -> 631 ;
632 [label="gini = 0.0\nsamples = 1\nvalue = [1, 0, 0, 0]\nclass = EU_Sales", fillcolor="#e58139"] ;
631 -> 632 ;
633 [label="gini = 0.0\nsamples = 6\nvalue = [0, 6, 0, 0]\nclass = JP_Sales", fillcolor="#47e539"] ;
631 -> 633 ;
634 [label="Year_of_Release_2002.0 <= 0.5\ngini = 0.245\nsamples = 7\nvalue = [0, 6, 0, 1]\nclass = JP_Sales", fillcolor="#66e95a"] ;
594 -> 634 ;
635 [label="Platform_GC <= 0.5\ngini = 0.5\nsamples = 2\nvalue = [0, 1, 0, 1]\nclass = JP_Sales", fillcolor="#ffffff"] ;
634 -> 635 ;
636 [label="gini = 0.0\nsamples = 1\nvalue = [0, 1, 0, 0]\nclass = JP_Sales", fillcolor="#47e539"] ;
635 -> 636 ;
637 [label="gini = 0.0\nsamples = 1\nvalue = [0, 0, 0, 1]\nclass = Other_Sales", fillcolor="#d739e5"] ;
635 -> 637 ;
638 [label="gini = 0.0\nsamples = 5\nvalue = [0, 5, 0, 0]\nclass = JP_Sales", fillcolor="#47e539"] ;
634 -> 638 ;
639 [label="User_Score <= 8.45\ngini = 0.278\nsamples = 6\nvalue = [0, 5, 0, 1]\nclass = JP_Sales", fillcolor="#6cea61"] ;
593 -> 639 ;
640 [label="gini = 0.0\nsamples = 5\nvalue = [0, 5, 0, 0]\nclass = JP_Sales", fillcolor="#47e539"] ;
639 -> 640 ;
641 [label="gini = 0.0\nsamples = 1\nvalue = [0, 0, 0, 1]\nclass = Other_Sales", fillcolor="#d739e5"] ;
639 -> 641 ;
642 [label="Genre_Shooter <= 0.5\ngini = 0.32\nsamples = 5\nvalue = [1, 4, 0, 0]\nclass = JP_Sales", fillcolor="#75ec6a"] ;
592 -> 642 ;
643 [label="gini = 0.0\nsamples = 4\nvalue = [0, 4, 0, 0]\nclass = JP_Sales", fillcolor="#47e539"] ;
642 -> 643 ;
644 [label="gini = 0.0\nsamples = 1\nvalue = [1, 0, 0, 0]\nclass = EU_Sales", fillcolor="#e58139"] ;
642 -> 644 ;
645 [label="Global_Sales <= 0.7\ngini = 0.32\nsamples = 5\nvalue = [1, 4, 0, 0]\nclass = JP_Sales", fillcolor="#75ec6a"] ;
591 -> 645 ;
646 [label="gini = 0.0\nsamples = 4\nvalue = [0, 4, 0, 0]\nclass = JP_Sales", fillcolor="#47e539"] ;
645 -> 646 ;
647 [label="gini = 0.0\nsamples = 1\nvalue = [1, 0, 0, 0]\nclass = EU_Sales", fillcolor="#e58139"] ;
645 -> 647 ;
648 [label="Platform_GC <= 0.5\ngini = 0.32\nsamples = 5\nvalue = [0, 4, 0, 1]\nclass = JP_Sales", fillcolor="#75ec6a"] ;
590 -> 648 ;
649 [label="gini = 0.0\nsamples = 4\nvalue = [0, 4, 0, 0]\nclass = JP_Sales", fillcolor="#47e539"] ;
648 -> 649 ;
650 [label="gini = 0.0\nsamples = 1\nvalue = [0, 0, 0, 1]\nclass = Other_Sales", fillcolor="#d739e5"] ;
648 -> 650 ;
651 [label="Genre_Shooter <= 0.5\ngini = 0.32\nsamples = 5\nvalue = [0, 4, 0, 1]\nclass = JP_Sales", fillcolor="#75ec6a"] ;
589 -> 651 ;
652 [label="gini = 0.0\nsamples = 4\nvalue = [0, 4, 0, 0]\nclass = JP_Sales", fillcolor="#47e539"] ;
651 -> 652 ;
653 [label="gini = 0.0\nsamples = 1\nvalue = [0, 0, 0, 1]\nclass = Other_Sales", fillcolor="#d739e5"] ;
651 -> 653 ;
654 [label="Critic_Count <= 18.0\ngini = 0.375\nsamples = 4\nvalue = [1, 3, 0, 0]\nclass = JP_Sales", fillcolor="#84ee7b"] ;
588 -> 654 ;
655 [label="gini = 0.0\nsamples = 1\nvalue = [1, 0, 0, 0]\nclass = EU_Sales", fillcolor="#e58139"] ;
654 -> 655 ;
656 [label="gini = 0.0\nsamples = 3\nvalue = [0, 3, 0, 0]\nclass = JP_Sales", fillcolor="#47e539"] ;
654 -> 656 ;
657 [label="User_Score <= 4.35\ngini = 0.375\nsamples = 4\nvalue = [1, 3, 0, 0]\nclass = JP_Sales", fillcolor="#84ee7b"] ;
587 -> 657 ;
658 [label="gini = 0.0\nsamples = 1\nvalue = [1, 0, 0, 0]\nclass = EU_Sales", fillcolor="#e58139"] ;
657 -> 658 ;
659 [label="gini = 0.0\nsamples = 3\nvalue = [0, 3, 0, 0]\nclass = JP_Sales", fillcolor="#47e539"] ;
657 -> 659 ;
660 [label="User_Score <= 8.6\ngini = 0.444\nsamples = 3\nvalue = [1, 2, 0, 0]\nclass = JP_Sales", fillcolor="#a3f29c"] ;
586 -> 660 ;
661 [label="gini = 0.0\nsamples = 2\nvalue = [0, 2, 0, 0]\nclass = JP_Sales", fillcolor="#47e539"] ;
660 -> 661 ;
662 [label="gini = 0.0\nsamples = 1\nvalue = [1, 0, 0, 0]\nclass = EU_Sales", fillcolor="#e58139"] ;
660 -> 662 ;
663 [label="Critic_Count <= 10.0\ngini = 0.444\nsamples = 3\nvalue = [1, 2, 0, 0]\nclass = JP_Sales", fillcolor="#a3f29c"] ;
585 -> 663 ;
664 [label="gini = 0.0\nsamples = 2\nvalue = [0, 2, 0, 0]\nclass = JP_Sales", fillcolor="#47e539"] ;
663 -> 664 ;
665 [label="gini = 0.0\nsamples = 1\nvalue = [1, 0, 0, 0]\nclass = EU_Sales", fillcolor="#e58139"] ;
663 -> 665 ;
666 [label="Platform_X360 <= 0.5\ngini = 0.444\nsamples = 3\nvalue = [0, 2, 0, 1]\nclass = JP_Sales", fillcolor="#a3f29c"] ;
584 -> 666 ;
667 [label="gini = 0.0\nsamples = 1\nvalue = [0, 0, 0, 1]\nclass = Other_Sales", fillcolor="#d739e5"] ;
666 -> 667 ;
668 [label="gini = 0.0\nsamples = 2\nvalue = [0, 2, 0, 0]\nclass = JP_Sales", fillcolor="#47e539"] ;
666 -> 668 ;
669 [label="gini = 0.0\nsamples = 1\nvalue = [1, 0, 0, 0]\nclass = EU_Sales", fillcolor="#e58139"] ;
583 -> 669 ;
670 [label="Platform_PS2 <= 0.5\ngini = 0.113\nsamples = 150\nvalue = [9, 141, 0, 0]\nclass = JP_Sales", fillcolor="#53e746"] ;
582 -> 670 ;
671 [label="Developer_Kush Games <= 0.5\ngini = 0.056\nsamples = 140\nvalue = [4, 136, 0, 0]\nclass = JP_Sales", fillcolor="#4ce63f"] ;
670 -> 671 ;
672 [label="Global_Sales <= 0.235\ngini = 0.042\nsamples = 139\nvalue = [3, 136, 0, 0]\nclass = JP_Sales", fillcolor="#4be63d"] ;
671 -> 672 ;
673 [label="Developer_Harmonix Music Systems <= 0.5\ngini = 0.444\nsamples = 3\nvalue = [1, 2, 0, 0]\nclass = JP_Sales", fillcolor="#a3f29c"] ;
672 -> 673 ;
674 [label="gini = 0.0\nsamples = 2\nvalue = [0, 2, 0, 0]\nclass = JP_Sales", fillcolor="#47e539"] ;
673 -> 674 ;
675 [label="gini = 0.0\nsamples = 1\nvalue = [1, 0, 0, 0]\nclass = EU_Sales", fillcolor="#e58139"] ;
673 -> 675 ;
676 [label="Developer_Electronic Arts <= 0.5\ngini = 0.029\nsamples = 136\nvalue = [2, 134, 0, 0]\nclass = JP_Sales", fillcolor="#4ae53c"] ;
672 -> 676 ;
677 [label="Developer_EA Canada <= 0.5\ngini = 0.015\nsamples = 132\nvalue = [1, 131, 0, 0]\nclass = JP_Sales", fillcolor="#48e53b"] ;
676 -> 677 ;
678 [label="gini = 0.0\nsamples = 124\nvalue = [0, 124, 0, 0]\nclass = JP_Sales", fillcolor="#47e539"] ;
677 -> 678 ;
679 [label="User_Count <= 16.5\ngini = 0.219\nsamples = 8\nvalue = [1, 7, 0, 0]\nclass = JP_Sales", fillcolor="#61e955"] ;
677 -> 679 ;
680 [label="gini = 0.0\nsamples = 1\nvalue = [1, 0, 0, 0]\nclass = EU_Sales", fillcolor="#e58139"] ;
679 -> 680 ;
681 [label="gini = 0.0\nsamples = 7\nvalue = [0, 7, 0, 0]\nclass = JP_Sales", fillcolor="#47e539"] ;
679 -> 681 ;
682 [label="Genre_Simulation <= 0.5\ngini = 0.375\nsamples = 4\nvalue = [1, 3, 0, 0]\nclass = JP_Sales", fillcolor="#84ee7b"] ;
676 -> 682 ;
683 [label="gini = 0.0\nsamples = 3\nvalue = [0, 3, 0, 0]\nclass = JP_Sales", fillcolor="#47e539"] ;
682 -> 683 ;
684 [label="gini = 0.0\nsamples = 1\nvalue = [1, 0, 0, 0]\nclass = EU_Sales", fillcolor="#e58139"] ;
682 -> 684 ;
685 [label="gini = 0.0\nsamples = 1\nvalue = [1, 0, 0, 0]\nclass = EU_Sales", fillcolor="#e58139"] ;
671 -> 685 ;
686 [label="Developer_Traveller's Tales <= 0.5\ngini = 0.5\nsamples = 10\nvalue = [5, 5, 0, 0]\nclass = EU_Sales", fillcolor="#ffffff"] ;
670 -> 686 ;
687 [label="Publisher_Vivendi Games <= 0.5\ngini = 0.408\nsamples = 7\nvalue = [5, 2, 0, 0]\nclass = EU_Sales", fillcolor="#efb388"] ;
686 -> 687 ;
688 [label="gini = 0.0\nsamples = 5\nvalue = [5, 0, 0, 0]\nclass = EU_Sales", fillcolor="#e58139"] ;
687 -> 688 ;
689 [label="gini = 0.0\nsamples = 2\nvalue = [0, 2, 0, 0]\nclass = JP_Sales", fillcolor="#47e539"] ;
687 -> 689 ;
690 [label="gini = 0.0\nsamples = 3\nvalue = [0, 3, 0, 0]\nclass = JP_Sales", fillcolor="#47e539"] ;
686 -> 690 ;
691 [label="Year_of_Release_2013.0 <= 0.5\ngini = 0.444\nsamples = 3\nvalue = [0, 2, 1, 0]\nclass = JP_Sales", fillcolor="#a3f29c"] ;
581 -> 691 ;
692 [label="gini = 0.0\nsamples = 2\nvalue = [0, 2, 0, 0]\nclass = JP_Sales", fillcolor="#47e539"] ;
691 -> 692 ;
693 [label="gini = 0.0\nsamples = 1\nvalue = [0, 0, 1, 0]\nclass = NA_Sales", fillcolor="#399de5"] ;
691 -> 693 ;
694 [label="Platform_PS3 <= 0.5\ngini = 0.444\nsamples = 3\nvalue = [0, 2, 1, 0]\nclass = JP_Sales", fillcolor="#a3f29c"] ;
580 -> 694 ;
695 [label="gini = 0.0\nsamples = 2\nvalue = [0, 2, 0, 0]\nclass = JP_Sales", fillcolor="#47e539"] ;
694 -> 695 ;
696 [label="gini = 0.0\nsamples = 1\nvalue = [0, 0, 1, 0]\nclass = NA_Sales", fillcolor="#399de5"] ;
694 -> 696 ;
697 [label="Global_Sales <= 0.96\ngini = 0.5\nsamples = 2\nvalue = [0, 1, 0, 1]\nclass = JP_Sales", fillcolor="#ffffff"] ;
579 -> 697 ;
698 [label="gini = 0.0\nsamples = 1\nvalue = [0, 1, 0, 0]\nclass = JP_Sales", fillcolor="#47e539"] ;
697 -> 698 ;
699 [label="gini = 0.0\nsamples = 1\nvalue = [0, 0, 0, 1]\nclass = Other_Sales", fillcolor="#d739e5"] ;
697 -> 699 ;
700 [label="Developer_Ubisoft Paris <= 0.5\ngini = 0.172\nsamples = 86\nvalue = [6, 78, 0, 2]\nclass = JP_Sales", fillcolor="#59e84d"] ;
578 -> 700 ;
701 [label="Developer_EA Sports <= 0.5\ngini = 0.154\nsamples = 85\nvalue = [5, 78, 0, 2]\nclass = JP_Sales", fillcolor="#57e74a"] ;
700 -> 701 ;
702 [label="Developer_EA Redwood Shores <= 0.5\ngini = 0.1\nsamples = 77\nvalue = [2, 73, 0, 2]\nclass = JP_Sales", fillcolor="#51e644"] ;
701 -> 702 ;
703 [label="Developer_Ubisoft <= 0.5\ngini = 0.078\nsamples = 75\nvalue = [1, 72, 0, 2]\nclass = JP_Sales", fillcolor="#4fe641"] ;
702 -> 703 ;
704 [label="Developer_EA Canada <= 0.5\ngini = 0.054\nsamples = 72\nvalue = [0, 70, 0, 2]\nclass = JP_Sales", fillcolor="#4ce63f"] ;
703 -> 704 ;
705 [label="gini = 0.0\nsamples = 61\nvalue = [0, 61, 0, 0]\nclass = JP_Sales", fillcolor="#47e539"] ;
704 -> 705 ;
706 [label="Critic_Score <= 74.5\ngini = 0.298\nsamples = 11\nvalue = [0, 9, 0, 2]\nclass = JP_Sales", fillcolor="#70eb65"] ;
704 -> 706 ;
707 [label="Critic_Count <= 23.5\ngini = 0.48\nsamples = 5\nvalue = [0, 3, 0, 2]\nclass = JP_Sales", fillcolor="#c2f6bd"] ;
706 -> 707 ;
708 [label="gini = 0.0\nsamples = 2\nvalue = [0, 2, 0, 0]\nclass = JP_Sales", fillcolor="#47e539"] ;
707 -> 708 ;
709 [label="Global_Sales <= 0.425\ngini = 0.444\nsamples = 3\nvalue = [0, 1, 0, 2]\nclass = Other_Sales", fillcolor="#eb9cf2"] ;
707 -> 709 ;
710 [label="gini = 0.0\nsamples = 1\nvalue = [0, 1, 0, 0]\nclass = JP_Sales", fillcolor="#47e539"] ;
709 -> 710 ;
711 [label="gini = 0.0\nsamples = 2\nvalue = [0, 0, 0, 2]\nclass = Other_Sales", fillcolor="#d739e5"] ;
709 -> 711 ;
712 [label="gini = 0.0\nsamples = 6\nvalue = [0, 6, 0, 0]\nclass = JP_Sales", fillcolor="#47e539"] ;
706 -> 712 ;
713 [label="Critic_Score <= 58.5\ngini = 0.444\nsamples = 3\nvalue = [1, 2, 0, 0]\nclass = JP_Sales", fillcolor="#a3f29c"] ;
703 -> 713 ;
714 [label="gini = 0.0\nsamples = 1\nvalue = [1, 0, 0, 0]\nclass = EU_Sales", fillcolor="#e58139"] ;
713 -> 714 ;
715 [label="gini = 0.0\nsamples = 2\nvalue = [0, 2, 0, 0]\nclass = JP_Sales", fillcolor="#47e539"] ;
713 -> 715 ;
716 [label="Critic_Score <= 79.5\ngini = 0.5\nsamples = 2\nvalue = [1, 1, 0, 0]\nclass = EU_Sales", fillcolor="#ffffff"] ;
702 -> 716 ;
717 [label="gini = 0.0\nsamples = 1\nvalue = [0, 1, 0, 0]\nclass = JP_Sales", fillcolor="#47e539"] ;
716 -> 717 ;
718 [label="gini = 0.0\nsamples = 1\nvalue = [1, 0, 0, 0]\nclass = EU_Sales", fillcolor="#e58139"] ;
716 -> 718 ;
719 [label="Critic_Count <= 30.5\ngini = 0.469\nsamples = 8\nvalue = [3, 5, 0, 0]\nclass = JP_Sales", fillcolor="#b5f5b0"] ;
701 -> 719 ;
720 [label="gini = 0.0\nsamples = 5\nvalue = [0, 5, 0, 0]\nclass = JP_Sales", fillcolor="#47e539"] ;
719 -> 720 ;
721 [label="gini = 0.0\nsamples = 3\nvalue = [3, 0, 0, 0]\nclass = EU_Sales", fillcolor="#e58139"] ;
719 -> 721 ;
722 [label="gini = 0.0\nsamples = 1\nvalue = [1, 0, 0, 0]\nclass = EU_Sales", fillcolor="#e58139"] ;
700 -> 722 ;
723 [label="Global_Sales <= 0.76\ngini = 0.225\nsamples = 31\nvalue = [4, 27, 0, 0]\nclass = JP_Sales", fillcolor="#62e956"] ;
577 -> 723 ;
724 [label="User_Count <= 34.0\ngini = 0.48\nsamples = 10\nvalue = [4, 6, 0, 0]\nclass = JP_Sales", fillcolor="#c2f6bd"] ;
723 -> 724 ;
725 [label="Year_of_Release_2012.0 <= 0.5\ngini = 0.245\nsamples = 7\nvalue = [1, 6, 0, 0]\nclass = JP_Sales", fillcolor="#66e95a"] ;
724 -> 725 ;
726 [label="gini = 0.0\nsamples = 6\nvalue = [0, 6, 0, 0]\nclass = JP_Sales", fillcolor="#47e539"] ;
725 -> 726 ;
727 [label="gini = 0.0\nsamples = 1\nvalue = [1, 0, 0, 0]\nclass = EU_Sales", fillcolor="#e58139"] ;
725 -> 727 ;
728 [label="gini = 0.0\nsamples = 3\nvalue = [3, 0, 0, 0]\nclass = EU_Sales", fillcolor="#e58139"] ;
724 -> 728 ;
729 [label="gini = 0.0\nsamples = 21\nvalue = [0, 21, 0, 0]\nclass = JP_Sales", fillcolor="#47e539"] ;
723 -> 729 ;
730 [label="Critic_Score <= 60.0\ngini = 0.5\nsamples = 2\nvalue = [1, 1, 0, 0]\nclass = EU_Sales", fillcolor="#ffffff"] ;
576 -> 730 ;
731 [label="gini = 0.0\nsamples = 1\nvalue = [1, 0, 0, 0]\nclass = EU_Sales", fillcolor="#e58139"] ;
730 -> 731 ;
732 [label="gini = 0.0\nsamples = 1\nvalue = [0, 1, 0, 0]\nclass = JP_Sales", fillcolor="#47e539"] ;
730 -> 732 ;
733 [label="User_Score <= 5.15\ngini = 0.5\nsamples = 2\nvalue = [1, 1, 0, 0]\nclass = EU_Sales", fillcolor="#ffffff"] ;
575 -> 733 ;
734 [label="gini = 0.0\nsamples = 1\nvalue = [1, 0, 0, 0]\nclass = EU_Sales", fillcolor="#e58139"] ;
733 -> 734 ;
735 [label="gini = 0.0\nsamples = 1\nvalue = [0, 1, 0, 0]\nclass = JP_Sales", fillcolor="#47e539"] ;
733 -> 735 ;
736 [label="Critic_Count <= 13.0\ngini = 0.5\nsamples = 2\nvalue = [1, 1, 0, 0]\nclass = EU_Sales", fillcolor="#ffffff"] ;
574 -> 736 ;
737 [label="gini = 0.0\nsamples = 1\nvalue = [1, 0, 0, 0]\nclass = EU_Sales", fillcolor="#e58139"] ;
736 -> 737 ;
738 [label="gini = 0.0\nsamples = 1\nvalue = [0, 1, 0, 0]\nclass = JP_Sales", fillcolor="#47e539"] ;
736 -> 738 ;
739 [label="Genre_Platform <= 0.5\ngini = 0.5\nsamples = 2\nvalue = [1, 1, 0, 0]\nclass = EU_Sales", fillcolor="#ffffff"] ;
573 -> 739 ;
740 [label="gini = 0.0\nsamples = 1\nvalue = [0, 1, 0, 0]\nclass = JP_Sales", fillcolor="#47e539"] ;
739 -> 740 ;
741 [label="gini = 0.0\nsamples = 1\nvalue = [1, 0, 0, 0]\nclass = EU_Sales", fillcolor="#e58139"] ;
739 -> 741 ;
742 [label="Critic_Count <= 25.5\ngini = 0.5\nsamples = 2\nvalue = [0, 1, 0, 1]\nclass = JP_Sales", fillcolor="#ffffff"] ;
572 -> 742 ;
743 [label="gini = 0.0\nsamples = 1\nvalue = [0, 0, 0, 1]\nclass = Other_Sales", fillcolor="#d739e5"] ;
742 -> 743 ;
744 [label="gini = 0.0\nsamples = 1\nvalue = [0, 1, 0, 0]\nclass = JP_Sales", fillcolor="#47e539"] ;
742 -> 744 ;
745 [label="User_Score <= 9.0\ngini = 0.444\nsamples = 6\nvalue = [0, 4, 0, 2]\nclass = JP_Sales", fillcolor="#a3f29c"] ;
571 -> 745 ;
746 [label="gini = 0.0\nsamples = 4\nvalue = [0, 4, 0, 0]\nclass = JP_Sales", fillcolor="#47e539"] ;
745 -> 746 ;
747 [label="gini = 0.0\nsamples = 2\nvalue = [0, 0, 0, 2]\nclass = Other_Sales", fillcolor="#d739e5"] ;
745 -> 747 ;
748 [label="Platform_PS3 <= 0.5\ngini = 0.48\nsamples = 5\nvalue = [2, 3, 0, 0]\nclass = JP_Sales", fillcolor="#c2f6bd"] ;
570 -> 748 ;
749 [label="gini = 0.0\nsamples = 3\nvalue = [0, 3, 0, 0]\nclass = JP_Sales", fillcolor="#47e539"] ;
748 -> 749 ;
750 [label="gini = 0.0\nsamples = 2\nvalue = [2, 0, 0, 0]\nclass = EU_Sales", fillcolor="#e58139"] ;
748 -> 750 ;
751 [label="gini = 0.0\nsamples = 1\nvalue = [1, 0, 0, 0]\nclass = EU_Sales", fillcolor="#e58139"] ;
569 -> 751 ;
752 [label="gini = 0.0\nsamples = 1\nvalue = [1, 0, 0, 0]\nclass = EU_Sales", fillcolor="#e58139"] ;
568 -> 752 ;
753 [label="gini = 0.0\nsamples = 1\nvalue = [1, 0, 0, 0]\nclass = EU_Sales", fillcolor="#e58139"] ;
567 -> 753 ;
754 [label="gini = 0.0\nsamples = 1\nvalue = [1, 0, 0, 0]\nclass = EU_Sales", fillcolor="#e58139"] ;
566 -> 754 ;
755 [label="gini = 0.0\nsamples = 1\nvalue = [1, 0, 0, 0]\nclass = EU_Sales", fillcolor="#e58139"] ;
565 -> 755 ;
756 [label="gini = 0.0\nsamples = 1\nvalue = [1, 0, 0, 0]\nclass = EU_Sales", fillcolor="#e58139"] ;
564 -> 756 ;
757 [label="gini = 0.0\nsamples = 1\nvalue = [1, 0, 0, 0]\nclass = EU_Sales", fillcolor="#e58139"] ;
563 -> 757 ;
758 [label="gini = 0.0\nsamples = 1\nvalue = [1, 0, 0, 0]\nclass = EU_Sales", fillcolor="#e58139"] ;
562 -> 758 ;
759 [label="gini = 0.0\nsamples = 1\nvalue = [1, 0, 0, 0]\nclass = EU_Sales", fillcolor="#e58139"] ;
561 -> 759 ;
760 [label="gini = 0.0\nsamples = 1\nvalue = [1, 0, 0, 0]\nclass = EU_Sales", fillcolor="#e58139"] ;
560 -> 760 ;
